4
64 64
0.0836262703 0.0881027803 0.0264430065 -0.00405965745 -0.0621380359 -0.00918204337 -0.0700545013 -0.190944523 0.00802220684 -0.0386051387 -0.00449009193 -0.0577029549 -0.121348388 0.0111528542 -0.0616415106 -0.0206045751 -0.00372681418 0.140047133 0.0743538439 0.131256938 0.0817181319 -0.0398148373 0.158208668 -0.0498269834 0.0576683097 0.113013573 -0.0821215957 -0.14507398 0.0403311886 0.106638804 0.0715066344 0.0743346214 -0.121774226 0.0521893278 0.0714899823 0.0569399931 0.0116600273 0.103449471 -0.0483217873 0.112120345 -0.10096664 0.00178971887 -0.0885815471 0.0923665613 0.0754321143 0.0172288008 0.10084112 0.129005104 0.0985752642 -0.00993625261 -0.0316914171 0.129544154 0.10924039 0.158119038 -0.124011017 -0.1350279 0.0473435037 0.064622499 0.146940842 0.0159678906 -0.0535328984 0.0249986779 0.175319195 0.0713488534 0.0481947884 0.142647639 -0.0576147959 0.00387243833 -0.0380862691 0.0330370031 0.137595728 0.0455736406 -0.0454965942 -0.0709856004 -0.00844721962 -0.0747210681 -0.0260021612 0.0601769798 0.0705355257 -0.0885899812 0.10106346 0.043391943 0.124521956 -0.0743216127 -0.155635655 -0.0266363584 -0.0482135229 -0.0835228041 0.0305320155 0.0862855911 -0.0567711703 -0.0343963541 -0.0650791675 -0.045481246 0.130105719 -0.0648839995 0.0764223486 0.118147045 -0.144256517 -0.0393462814 0.0511921234 -0.0936188102 0.139241323 0.0110284556 0.169458583 0.128555238 0.128488123 -0.0517345741 0.0692315027 -0.0419898853 -0.0814194307 0.0701469257 -0.120522432 -0.0917876139 0.0782933235 -0.0815789253 0.0724515766 0.0830058977 -0.0539213568 -0.140930906 -0.0734048858 0.0214267354 -0.0409901738 0.12913917 -0.068960622 0.0523711331 -0.0970360339 -0.110937126 0.00841051899 0.0564059317 -0.10783273 0.0171304587 -0.13072966 0.169339985 0.0815138593 0.0317829736 -0.0554864407 0.026320884 -0.040477939 -0.089531742 -0.115744472 0.164557055 -0.0248862151 -0.117446028 0.107271835 -0.0428117439 0.155415624 0.190550119 -0.19426991 0.105506517 -0.167821512 0.142031968 -0.0520406552 0.0474374443 0.0256998539 -0.0356421806 -0.055742681 0.0913189948 0.0482037552 -0.044193875 -0.152302176 0.196929216 0.0750207305 -0.163406581 -0.0714411214 0.04138688 0.0655938685 -0.0802642182 0.0819309652 -0.0682134256 0.019987274 -0.0112131545 -0.12614809 0.0756869912 -0.0911246017 -0.158350185 -0.00962542463 -0.141311675 0.068101272 0.0181479827 -0.0842450783 -0.202459067 0.185924307 -0.0153133534 0.0177993271 0.0158260092 -0.0236400217 0.0775532201 -0.0449426509 -0.0916402116 -0.149517789 -0.135810241 0.13098304 -0.088271983 -0.134770453 -0.0439489074 0.0444946624 0.00279814773 -0.112012312 0.0749560744 -0.100554541 -0.0700302348 -0.112157434 0.0405648574 0.0507869832 -0.031345062 -0.0947623923 0.0947667733 -0.0397492871 -0.0879170597 -0.0805954784 -0.185985267 0.0316784754 0.100735672 0.0453614667 -0.108340658 0.0882283673 -0.0137432553 0.0906725377 0.0175164528 -0.0567464791 0.10951294 -0.116607271 0.00373371481 0.0525889881 -0.0266540982 -0.070028685 -0.0754983425 0.0631974041 0.0319932289 -0.0971870348 -0.0817069337 -0.0127721606 -0.00947072636 0.0963912457 0.0307045951 0.0328579247 0.0576447733 0.0314462669 -0.0144353099 -0.0548448488 -0.0931900665 0.0572887249 0.0441744253 0.0419074669 -0.0407958329 0.0568777807 0.0405731946 0.0454785451 -0.0228118356 -0.0256052185 0.0387287587 0.0726753548 0.0591776446 -0.0196886323 -0.0455106758 0.101006173 -0.0894784555 0.069831185 -0.084624812 -0.167388469 -0.1141304 -0.012155734 0.0223857313 0.0846838057 0.0036998929 0.125288501 0.0802349672 -0.0912880003 0.0429229997 0.176727086 0.129583836 0.0464983843 0.0377140865 0.0226523541 0.0362033322 -0.149164781 -0.0332037061 -0.135730088 0.0468618721 0.0132213617 0.0757208318 -0.0254208744 -0.0535885058 0.109894902 -0.0444498844 0.000164519326 -0.0520377904 -0.0161848292 -0.0179363545 -0.0432151519 -0.118266985 0.0146454163 0.103546716 -0.0671491772 -0.0871737674 0.108952947 -0.0330296606 -0.000851699791 -0.0717303455 -0.0379194096 0.00158838881 -0.147291958 0.0325819254 0.0565122887 -0.0923205167 0.00624479121 -0.103463165 -0.0413047522 0.0803834721 -0.0175494049 -0.08728531 -0.0382066816 -0.0471971557 0.0107284775 0.11387413 -0.0883885846 0.0907863155 -0.0959229842 -0.134292528 0.110056296 0.0174267218 0.0120590013 0.00493999384 0.139266998 -0.119221941 -0.14692153 0.00598401809 -0.0114971502 -0.0926064551 -0.132157892 -0.0485178865 0.0783767775 -0.0785001889 -0.182910368 -0.15882051 0.0975439474 0.0470154136 -0.119545333 -0.0597241484 -0.0455338359 -0.147346094 0.0197792109 -0.127214357 0.074253507 0.016308032 0.0356537178 -0.120334923 0.109271429 -0.070741415 -0.00287098042 -0.0476606525 -0.0472048521 -0.141733184 0.117338389 0.0131629715 -0.0590695515 0.134913012 -0.120592579 -0.047925774 0.0157338213 0.0535587072 -0.144819021 0.0787651613 0.148101851 -0.00409931364 0.060982585 0.0432790332 0.171026573 0.0876677781 -0.0407944955 0.0205286425 0.039243795 0.173094496 0.104755625 0.00607143203 0.078856796 -0.107801229 0.124594644 -0.170057848 0.172838852 0.0593750812 0.0974237472 0.17027624 -0.0651254952 -0.191872612 -0.084720552 -0.0843083188 -0.0940603614 0.0247280598 0.032391198 0.0132641317 -0.108273529 0.00246554869 0.0184494872 0.0959570408 -0.140372247 0.146199048 -0.0315602832 -0.0404220186 -0.00289027672 -0.0195423719 0.0649007112 0.158697531 -0.08515466 -0.0141659109 0.0815670267 0.109641522 0.0203379467 -0.0245280694 0.162349343 0.097058706 -0.0809771642 0.00885233097 -0.102830879 -0.0210165754 -0.0948089585 0.147964001 -0.11632479 -0.0313318782 -0.0584344082 -0.118833847 0.0562469885 -0.127336308 0.0571968332 0.0907549933 0.15080975 -0.032530088 0.0798099935 0.160985753 -0.0541381277 -0.109730415 -0.075581722 -0.0733736604 0.0515045449 -0.120366447 0.0159838144 -0.0774307474 0.0688662678 -0.185790092 -0.0277971346 -0.0379421413 -0.106816657 0.142707288 -0.0330269374 -0.0688056573 -0.0147535009 -0.148267999 0.0319366753 0.1192322 0.0412336588 -0.0865437761 0.0108357286 -0.0272457562 -0.0491893627 0.0753856003 -0.0604717471 -0.0540939085 0.0625152662 -0.0733638927 -0.0371628813 -0.128759608 -0.194583893 -0.132586986 0.0269758292 -0.0257871579 0.000298625411 -0.0812929496 -0.0190576855 -0.120618217 0.0873940587 0.00738392165 -0.120609932 0.0170815736 0.0168505665 -0.0729869753 -0.0442364104 -0.071541585 -0.0819356218 0.133724108 -0.0128917405 -0.155507654 0.0515356101 -0.0218439363 0.0461667553 -0.0892082453 -0.12908718 0.043884825 0.0836710408 -0.0280937124 0.0240444411 -0.0710755438 0.128227785 -0.0992630199 0.144651398 0.00494982861 0.107041247 0.126528308 -0.0576317683 -0.00357157527 0.114869736 0.163621441 -0.0635739416 0.0211136248 0.0602702722 -0.0631796494 0.0223747734 0.0550475642 0.142106131 0.128896341 -0.0194703508 0.062301293 0.0494636744 -0.107937187 -0.0303005222 -0.043847993 -0.0895543993 -0.078657195 -0.0271372031 0.0477851443 0.0398219116 0.0769194812 0.123489134 -0.103440054 -0.0694987327 0.144838139 0.0111605441 0.00856250152 -0.0328077376 0.00396862766 0.195126176 0.0456603691 -0.176330879 -0.0353608243 0.0418585353 -0.0206935573 0.0884756297 -0.0913334191 0.0980011374 0.121529758 -0.0596952029 0.133532926 -0.154518098 -0.118372455 -0.0547768958 0.0102786161 -0.112373322 -0.141535431 0.108106077 0.0292716529 0.169165194 -0.0216900185 -0.00273659686 -0.0816809162 -0.0454834066 -0.0192170683 -0.0153058143 0.0429366119 -0.0168292243 0.0652023777 -0.0939912722 0.0913469642 0.0275364872 0.0499173328 0.0189641248 -0.0975505337 -0.0562864356 0.00834116805 0.0679990351 0.166340813 -0.0404017381 0.0427351072 -0.0310474318 -0.0890261456 -0.112488218 -0.144426659 -0.0969905108 -0.163379848 0.0698605627 -0.0447253771 -0.139298528 0.0991814882 -0.0550997518 0.136199489 -0.170572937 0.0825893283 0.0722465143 -0.0819442943 -0.0999508947 -0.0186809339 0.135173663 -0.054848399 0.0387677997 -0.0788572654 0.00844127126 0.0991036892 -0.118761048 0.110932432 -0.128377959 0.0128376242 0.092295222 -0.129797906 -0.0599884726 0.0830475911 -0.133650839 -0.0550316498 -0.156939223 -0.0389426164 -0.162671238 -0.0107531706 0.048424758 -0.0790332556 -0.0063799615 -0.121765397 0.0203238651 -0.148931265 0.132744968 -0.132617295 -0.0507567599 0.023111498 -0.0101580098 0.122189552 -0.0765395984 -0.0984923318 -0.140228704 -0.0719586685 0.178533345 -0.129403293 0.0817371085 -0.0912932009 -0.0182990059 0.0500815324 -0.0572532639 0.0986536443 0.0289991051 0.108340375 0.0531915799 -0.0233343523 -0.129825234 -0.0261927992 -0.0075097857 -0.128996581 -0.140365168 0.0136986999 0.0251473356 0.011279718 0.134696826 0.152839854 -0.0386946388 -0.0151201617 0.0994676054 0.086674802 0.137193814 0.0773243755 -0.125463083 0.18117407 -0.0875816345 -0.127000898 0.105393976 0.0387972258 -0.0786297172 0.0929810107 -0.123841174 0.00110802031 -0.0135389324 -0.185149223 0.101546295 -0.0692139938 0.0724293441 -0.01061117 -0.021435447 0.0360808782 -0.133169413 0.111872904 -0.101946369 0.12803115 0.0322554111 -0.0073114601 -0.0940347984 -0.0866543204 0.022676589 -0.0394899175 -0.0780207962 0.0607769601 -0.0726948082 0.126422286 -0.142260417 -0.0195176397 0.135724902 -0.0796383619 0.0616082139 -0.0359252617 0.0502002016 0.129654542 0.129720345 -0.0630910844 -0.0632904172 0.0257648826 0.134089485 0.150644079 -0.149885714 -0.110022649 -0.0652254745 0.0460532643 -0.00181190728 -0.126123562 0.180860892 -0.147726223 -0.0638228282 -0.0720147714 -0.0790049285 -0.0353248492 0.0660761818 -0.0610531308 -0.120604955 -0.0378054045 0.129113838 0.129847601 -0.0240793973 -0.134382233 0.117075562 0.071227558 -0.0891019851 -0.167402923 0.113274246 0.131161869 0.0765345171 -0.186612293 0.0178918634 -0.0250480082 -0.053949181 -0.100748025 -0.0176435318 -0.0893927589 -0.0339632444 -0.0645388514 0.125140816 -0.0404177718 0.156349495 -0.0926048756 -0.0565546267 0.228705481 -0.152010575 0.0431888141 0.0325302854 0.00811788067 -0.0340728164 -0.0405717567 0.0186240841 -0.14104864 0.153116629 0.167486265 -0.0494270511 -0.0253395643 -0.0874391571 0.0968524367 0.0223089382 0.0742231384 0.0177314188 0.0929995552 -0.0499207228 -0.0449063629 0.0770560056 -0.131187096 0.164649814 0.110066488 -0.0268587414 0.138770103 0.0556550995 -0.0767012089 -0.118249521 -0.0203087125 -0.10926149 0.0334147252 0.149872467 -0.0411432162 -0.127935931 -0.125197664 -0.0823409259 -0.0489654839 0.046580907 0.00951811951 -0.0254049394 0.0681626797 -0.0634289756 0.00297402474 0.0534880757 0.0669100061 -0.143031418 0.0206668992 -0.120434031 0.0440248251 0.00826401077 -0.0823098272 0.0591371059 -0.0279981289 -0.0349953547 0.0634857193 -0.0284900647 -0.0165477674 -0.0825118199 -0.0658406988 -0.0186585449 -0.130029798 -0.0618062094 -0.129335672 0.157771498 -0.0843989998 0.0525704324 -0.0173102822 0.150174111 -0.0810412616 0.0858191624 -0.11269258 -0.10169296 -0.0258648433 -0.0751354247 -0.0550400242 -0.0112894475 0.0698910281 -0.0459171534 -0.0170608144 0.169765532 0.0267974399 0.109002411 0.180174455 0.0578565337 0.0895895064 0.0174264703 0.0193320084 -0.0402626917 -0.0500046276 0.109999254 -0.129335776 0.000309205352 -0.0265292525 -0.112933159 -0.0427574925 0.106202468 0.0593762435 -0.0691109076 0.0293353852 0.204855576 -0.0603946522 0.141668752 0.194326386 -0.0754791796 -0.0317504182 0.0508084185 -0.036744345 0.0674769878 0.0361814238 0.0457146317 0.0950838029 -0.012397957 -0.111845665 0.136471942 -0.130051613 0.149171621 0.0702486709 -0.00929854345 0.152842641 -0.00732045807 0.122491047 -0.0830285326 0.148842648 -0.0838728249 0.0908150375 -0.0586774722 -0.148766384 0.161120966 0.128261253 -0.0573514849 -0.172346383 0.0225647949 0.00192065106 0.0849816278 0.0397358052 0.129762933 0.075135909 0.00871090032 0.0131847942 0.126620546 0.205683216 -0.0181015246 -0.151202679 0.0437631793 0.10226208 0.0289772321 -0.0488989279 0.0348019749 0.0510519296 -0.0680421293 -0.0120987929 -0.106316701 -0.0721736103 -0.00968159735 -0.0166830067 0.0585910045 0.0507947691 0.00715073571 -0.100449361 -0.0219749566 -0.0756399706 -0.091935955 -0.0048133512 -0.0644296035 -0.130307227 -0.0649958923 0.0565379113 0.164214477 -0.00517625036 -0.0631186441 0.0500816032 0.101202972 0.138963759 -0.150031507 0.0328832529 -0.139215693 0.117309324 0.0977278426 -0.041015178 -0.106215015 -0.0751669928 0.106782056 -0.13524057 -0.0737286732 -0.0728958547 0.164178476 0.0238302201 -0.099368237 0.0884857476 -0.131747261 -0.0155119542 -0.132635772 0.0198335648 0.0130099971 -0.0406427197 0.0102144647 0.102594398 -0.104106456 -0.0360710919 -0.0687214211 -0.0681616217 0.0873736367 0.0421870425 -0.136314526 0.121887781 -0.114091873 -0.079845503 0.123901911 0.17678389 -0.0535729043 0.0841762573 -0.0622723959 0.0239751525 -0.0388503075 -0.0614796467 -0.128279969 0.036092978 -0.0650671199 -0.215428382 -0.116922446 -0.0645426735 0.0239518005 -0.0604868159 0.180566251 0.133130714 -0.0497406386 -0.109300837 0.0101304101 0.0742050037 0.00726536848 0.152528554 0.0208357163 0.0994678363 -0.117161296 -0.175309628 0.0250280462 0.0643953308 -0.0800915137 -0.0101797497 -0.160944626 0.171876296 -0.0442781597 0.0201784093 0.125265002 0.131978914 0.000888398266 0.0242408868 0.088722229 0.0156417936 -0.0658570081 -0.0154293608 0.0269972458 -0.11586795 0.0594933555 -0.00654751202 0.0621807687 0.00407749508 0.0755949393 -0.0121771572 0.0309387278 -0.0400475822 -0.0202036873 0.042608507 -0.00684276409 -0.121796779 0.0569030419 -0.106033541 0.10286212 0.059255667 -0.137220532 -0.102672003 0.172617286 -0.0924240202 -0.0951085314 0.149231493 -0.0844566375 0.108729444 -0.0994006097 -0.0552705452 0.024867231 -0.0690565705 -0.0656595528 0.0368897095 0.081785582 -0.110623568 0.144656405 -0.057090085 0.00240752334 0.0241904985 0.108395487 -0.0422692075 -0.147163123 -0.0840788186 0.00680479361 -0.0259539206 0.01898879 -0.11657618 0.119579434 0.0812703446 -0.0594861172 -0.131155938 0.107235 -0.150564983 0.169339627 -0.0436615646 -0.113713525 0.171146512 0.0385045186 -0.095738709 0.0301349666 0.00755477417 0.0684512854 -0.0249455348 0.0972028822 -0.0745980069 0.0521416515 0.0976076424 -0.0840861052 -0.00952177402 0.0236899629 0.0908034593 -0.0376535542 -0.0184891932 -0.15387015 -0.0594973713 -0.0204809662 -0.0589718521 0.180601284 0.114711843 0.0477181673 -0.0489064157 -0.0924635231 0.116117343 0.0920874849 -0.00790662318 -0.10121391 0.0158849638 0.0984866843 -0.0794812813 0.0472957715 -0.128377467 0.0665350854 0.0723937601 0.0988797471 0.00856550597 0.00806943141 0.0563397333 -0.0747639313 0.0448969901 0.184218258 -0.123527072 -0.134018242 0.0012369433 0.00440548453 -0.0860765055 0.0335811079 -0.160955697 0.067758359 0.0676999986 -0.130487472 0.00794923119 0.0752785802 0.0487945601 -0.178952545 -0.150456026 0.0868237764 -0.0540258363 0.062997289 -0.148194596 -0.0621353425 -0.0333761536 -0.0766747817 -0.0375511609 -0.0392166898 -0.14567773 -0.0147379432 0.0954078212 0.117139377 -0.164881736 0.0761090294 0.0309384931 0.0330360457 -0.0154334875 -0.00777812721 -0.0753957629 -0.0995822698 0.147589043 0.0789771974 0.0938638672 -0.0773029029 -0.165920645 0.12225356 -0.0330456458 -0.0214166325 0.105981261 -0.118442833 -0.0131071955 0.156057715 0.170448333 -0.0676822215 0.0781824663 -0.0202146247 -0.13013716 0.135765553 -0.156741291 0.17429173 -0.0501075685 0.0517234616 -0.0640422776 0.0704301447 0.0623117983 -0.116387784 -0.0620615594 -0.114336371 0.0755326375 -8.82145832e-05 -0.0526219308 0.00118815119 -0.0968158096 -0.0758978426 0.0295340382 0.164746702 -0.00328267203 0.123624317 0.0366632342 -0.0721262246 0.0803347155 0.0827789605 0.00845701899 0.0785176754 -0.00685401075 -0.00396127952 0.000818627246 0.0920504183 -0.0495574288 -0.011477029 -0.168315321 -0.00574914692 -0.0668575019 -0.0372785218 -0.054374788 -0.0538985766 -0.100477271 -0.108215839 0.0281981118 0.1007386 0.0603381582 -0.0843145475 0.072482653 0.133031726 0.114175901 0.00439153751 0.0565614551 -0.117862262 0.0870192572 -0.137871653 -0.050396096 -0.105112992 -0.0134638604 0.108081825 0.0514342375 -0.115112133 -0.144686967 -0.126059532 -0.0956555754 -0.010333675 0.0641189218 -0.155308247 -0.0791650787 0.000131182489 -0.0282751229 -0.043679826 0.063145496 0.142880321 -0.0473932438 0.0445572361 -0.12138623 0.0846501887 -0.0813918412 0.0399292521 0.0836028084 0.0717875585 -0.0723885149 -0.172973871 -0.117091306 -0.0197589118 -0.0342832804 -0.157569543 -0.0265547782 0.0669299811 0.0241129026 0.0259740576 -0.0664357692 0.0708792061 -0.13164942 0.125923216 -0.104040846 -0.0286675654 0.150134325 -0.153663352 0.0264643971 0.0109336358 -0.087996617 0.134276897 0.102730997 0.0636452883 -0.026808301 0.125332236 0.134881556 -0.0599137507 0.0485878363 -0.152425855 -0.118878081 0.0245596245 0.059570957 -0.132587254 0.152422696 -0.0470539182 -0.161704347 0.0248313099 0.0463962592 0.176019132 0.0830518082 0.0776011869 0.0859914646 0.0365471952 0.000233899831 -0.0214966238 -0.000622508465 0.16937907 -0.140861154 -0.0787386745 -0.239545166 -0.0749448761 0.0468718708 0.0624591224 0.107877165 0.110484794 0.0847591385 0.0175886545 -0.030775452 0.14461647 -0.118377075 -0.100130342 0.041043181 -0.0241979081 0.0139371539 -0.00553004816 -0.161724657 -0.0754380301 -0.00416784734 -0.136687592 -0.0109041352 -0.050999701 0.106513888 0.0238758996 -0.0138230333 -0.0814653635 -0.0710856691 0.137669668 -0.0797493979 0.0496643968 0.164011225 -0.071694456 -0.0250585694 -0.0547864251 -0.0630906373 0.0287290756 -0.0261622835 -0.0392092764 -0.040994063 -0.0522603877 0.146220088 -0.0364684612 -0.0207212642 -0.0577575341 -0.118677355 -0.0570534095 0.116220884 0.0696049407 -0.0462195277 0.00663117552 -0.0886562318 0.149438336 0.0304101035 0.143152937 0.115526281 0.112601861 0.138509601 0.109288387 -0.0301292483 0.0592766032 0.0722610727 0.159777775 -0.0218450483 0.16136612 -0.0359703153 0.107316203 -0.0499452911 0.148955584 0.0847472921 -0.0183966085 -0.178785428 -0.00358228921 0.115223318 -0.0582221486 0.0461856127 0.121883802 0.0826213881 -0.125099733 0.104971908 0.120914161 0.12583673 0.0423247591 0.0316933766 0.171595171 0.00920934137 -0.0549037419 0.0149306739 0.00600591907 0.026775565 -0.105838887 0.163257375 -0.050719142 0.159649864 0.0463416949 -0.0369542539 0.0310846362 0.0892098173 -0.147861511 0.111687794 -0.0658753067 0.072159566 0.107517645 0.197816744 -0.0642572567 -0.0779271945 -0.0914243385 -0.138098434 0.0727880374 -0.103938676 -0.041953966 0.0812054724 0.0789808482 -0.0336307622 -0.093711704 -0.0614841692 -0.01505291 -0.148698017 -0.0991445929 0.0586345121 0.0594306178 0.0356833525 -0.0340715908 -0.0636823699 0.155284002 -0.128954589 -0.0308043882 0.0680100471 -0.174060658 0.129528493 -0.0607983656 -0.190906629 -0.149067804 -0.0921802819 -0.111760534 -0.0160468817 0.0146263959 0.0364277028 0.0650868714 -0.0368855447 0.0454475433 0.00833108928 0.0198159758 0.124006689 -0.0631344542 -0.0687483624 0.036527954 0.177143246 -0.0040555317 0.0836128816 -0.0241740383 -0.133900657 0.0867530107 0.0487525947 0.0382933095 0.139474601 0.00821014959 0.0283957142 -0.0882424116 0.0765729323 -0.0559934415 0.0146589251 -0.130221099 0.181823209 -0.192138538 -0.069800742 -0.171842888 -0.0641250461 0.144468874 -0.100742266 -0.0527521856 -0.035270866 -0.0372527577 -0.0999465063 -0.0413773917 0.0761397406 -0.0960436389 -0.0813904479 -0.160980031 0.168729424 -0.0544704683 -0.0418221839 0.0549402833 -0.0128924418 0.0582585521 -0.103731699 -0.151309714 0.0353462398 0.167402253 -0.0595420301 -0.0825950727 0.00488530658 -0.199977174 0.0675256103 0.0178866629 0.0180297494 -0.0526593365 0.0409871638 -0.0377710871 -0.151316181 -0.12255384 0.017288262 -0.0307710376 -0.112886079 0.0655368865 -0.0481377803 -0.104494184 -0.0215709787 0.13416189 -0.0780843943 -0.163444579 0.0483688265 -0.129576504 0.143430248 -0.192349762 -0.00922611076 0.0599495284 0.0609841347 -0.00835152343 0.0214755628 -0.160420597 0.0404831804 0.0951007828 -0.0760232955 0.102762513 0.0411480516 -0.0364464931 0.0131012807 -0.22699739 -0.0705707073 0.0714592934 -0.05124503 -0.171028867 -0.00245508016 0.0541011468 -0.0217906609 -0.0301852822 0.0183937587 -0.115478255 0.0883028135 -0.065370895 -0.127347052 0.0991765484 -0.0159696992 0.0402702093 -0.0569787584 0.264753431 -0.098974131 -0.0199157074 -0.0455918051 -0.047553692 -0.00419155927 -0.0275729336 -0.0528000891 -0.221812099 -0.0649416819 -0.00141734385 0.183299452 -0.147751436 0.0905994251 0.00625152234 0.00393349491 -0.014148511 -0.023563439 -0.00277396571 -0.0113212038 0.0198322535 0.0597048663 0.134752765 0.0173968282 -0.0553580448 -0.0101796966 -0.0414054543 -0.0520038567 -0.129116744 -0.0706947297 0.0196132232 -0.0815899372 0.054299891 -0.194234803 0.168338314 0.114276357 0.00346540171 0.0736047402 -0.00260392739 0.138327196 0.038390331 -0.0206114836 0.115923949 0.052831322 -0.16505526 0.0334428325 -0.129567802 -0.0997011513 -0.10446848 0.136457518 -0.131244823 -0.161537066 0.0950706005 0.0533344075 0.0638721585 -0.0664972812 0.0227194596 0.0103866607 -0.0105402218 -0.0881706178 -0.00161623873 0.16425328 -0.0621095672 0.0508513674 -0.186685279 0.0369471274 0.053936705 0.0278553292 -0.143925369 -0.0556940287 0.153650507 -0.13627547 0.0426541083 0.0412407443 -0.13038744 0.0321000963 -0.0138774365 -0.112582363 -0.0201798547 -0.0851809382 -0.0537777729 -0.0169997234 0.15550895 0.0435397625 0.171056196 0.0490857922 0.0264611188 -0.0846052393 0.120529182 0.0939721391 -0.104989231 -0.00345277786 -0.0166808348 0.0747384429 -0.0345509797 0.0315068774 0.111147039 -0.0211804993 0.0901189223 -0.0347897112 0.101456888 0.00350385089 -0.0882411003 -0.109712549 0.00743701169 0.0249914937 0.0797605067 0.0865844563 0.0551774092 -0.0642688721 0.136388689 -0.0136767011 0.161472708 -0.158267975 0.158716738 0.0566110946 -0.17821756 0.122625194 -0.0723246485 -0.0339232683 0.0224905536 0.106487073 -0.0787612498 -0.0860315412 0.0242844541 0.0307981521 0.085171245 -0.0244927611 0.0905519277 0.0464714319 0.0957169905 -0.0842086822 0.0864128247 0.0290196352 -0.0152236298 -0.0596808493 0.0958942547 -0.0302495752 -0.135531783 0.0283317175 -0.0162695069 -0.0272703413 -0.179946855 0.191356376 0.0722727999 -0.00367238815 0.0456071049 -0.0704348683 0.0918218344 -0.0231436323 -0.0388362519 0.0612312704 -0.0422710776 -0.091464296 0.0865359306 -0.00835444592 0.0993829072 0.0531024858 0.00398659194 0.0563095398 -0.100619525 -0.0632631704 -0.07617037 0.0181670655 0.0457582138 -0.00470838556 -0.0432209261 -0.152788147 0.0746399239 0.0506514944 -0.0695517361 0.00861565676 -0.120258808 -0.0691198185 -0.0201977771 0.122422233 -0.000203094329 -0.040139284 -0.0713571161 0.0729436204 -0.0712306276 0.0637276396 0.0469827913 -0.0771935359 -0.0727346241 0.12196286 0.0446873978 -0.100254282 -0.0153266406 -0.0806557387 0.155499801 0.0726535842 0.0857877806 -0.0620842166 -0.0919118449 0.0979173332 0.0991005227 0.0510038249 -0.0283876192 -0.109662987 0.156945109 0.0102548795 0.0909622684 -0.0328631103 0.0187653489 0.0257751048 0.111861624 0.0622071624 0.00148346205 0.0911380798 0.000123344536 0.00256062369 -0.0234508384 0.0938157812 0.0136784092 0.0716097727 -0.16862689 0.066277869 -0.00363990944 -0.0712755173 -0.187644303 0.0464028642 0.0562004074 -0.0966478586 -0.0175235979 -0.168238819 -0.116553389 0.135501966 0.0269693788 0.164044663 -0.0405718833 -0.0284364987 -0.0975321755 0.0663633794 0.0130659612 0.0462475196 -0.0549830794 0.0841370821 0.0430708192 0.0941054672 -0.040547546 -0.0658738837 -0.119170286 -0.0660723895 0.0132897059 -0.0117039662 -0.0611408763 -0.0649122968 -0.0326296054 0.000568045129 -0.0266935378 -0.0587473139 0.0426797196 0.0123311952 -0.121229231 -0.111444376 0.132536039 0.101977021 0.12250898 -0.221862078 0.06850411 0.00897199754 0.10180749 -0.0601652004 -0.00716355722 0.153809428 0.0294254217 -0.0227842759 0.146757856 -0.00619061245 -0.184389815 -0.0593372285 0.148445532 -0.0051640328 -0.0271980129 -0.0186358038 -0.171108305 -0.00942324288 -0.0867960528 0.0174912773 -0.0748954564 -0.0222665649 -0.121031575 -0.111905448 -0.0387063883 -0.0749567226 -0.134671733 -0.181085601 0.179659054 0.0154456878 0.142741188 -0.0246395282 -0.113353893 0.0346726142 0.00655204942 0.0555766672 -0.0295380224 0.195601717 -0.0112289479 -0.149621144 -0.0504699647 0.0446487255 0.0368766412 0.0230503697 -0.0867078677 -0.151000008 -0.0308329202 -0.0951258838 0.0482989885 0.0979243144 0.119083703 -0.179881468 0.0339653268 -0.0424094796 -0.0016771704 -0.0951320678 0.114340387 0.0454296172 0.215346023 0.191285357 -0.0812605023 0.0863909647 -0.0346490964 -0.00695024431 -0.0697938427 0.00507451734 0.0945212394 0.0177935865 0.109169789 0.127081603 0.07886713 0.171237096 -0.0436747558 0.0342489891 0.0169062875 0.0701969564 0.0722978488 0.245953947 0.129130423 0.0516092256 0.00403635483 -0.0503615439 0.0210612118 0.00291445083 0.0184505843 0.054575216 0.0353029072 0.0261719991 -0.150678009 -0.03547002 -0.0103623969 -0.0854831859 -0.0775284767 -0.0510923117 0.115384579 0.141312897 -0.181275323 0.173438802 -0.180046067 0.00712448219 -0.00850978121 -0.0907096267 -0.106950946 -0.00911341701 -0.154498756 0.0426726528 0.113037489 0.127852038 -0.08989501 0.149331868 -0.0827892497 -0.137430012 -0.0119549483 0.0286976192 0.0638901368 -0.0895408317 0.102862082 0.111773051 0.0766874999 -0.0455841571 -0.145059809 -0.10871467 -0.00296072871 0.0404429957 -0.125014797 -0.010293371 0.0013243194 0.107413732 0.162429169 0.108055338 -0.0264980532 -0.0797974691 -0.00730233779 0.109659672 -0.0313672461 0.0877496228 -0.0670812801 -0.0674965009 -0.168866143 -0.043947082 -0.0483862087 -0.121488139 -0.0836724862 0.0893051699 -0.00233647553 0.104080394 0.0856608674 0.0139859328 -0.0505189039 -0.0154310185 0.117194273 0.158464074 0.111555122 0.0525093153 -0.0465146638 -0.0126570202 0.100966804 0.0754091665 0.0357247554 0.0892832279 -0.132537559 0.0313838534 0.0484333709 0.093833074 0.0272844043 -0.0244758055 0.0568252988 0.078148894 -0.0326565988 0.0971411318 -0.0930185616 -0.0353053547 -0.0409165099 0.161189586 0.0209291428 -0.0683082268 -0.134223342 -0.11108698 0.0984029621 -0.0756332055 0.144225806 -0.149759337 0.0487725697 -0.103684843 0.054982271 0.172587901 0.0312397424 -0.00121631834 -0.194444314 0.0652337894 -0.046481993 -0.173956975 -0.129988611 -0.0702002496 -0.0542228185 -0.155853197 0.0840293467 0.0205545928 0.0110652065 -0.000773910375 0.0768981501 -0.0784959421 -0.0741746351 -0.138848051 -0.0658017248 0.0784182176 0.0238478985 -0.0632703826 0.022649575 -0.00259717973 -0.1880465 -0.0949332565 0.0377835929 -0.0337373689 -0.0917408094 0.0139356591 0.129909351 -0.04495335 -0.0446789823 -0.172747716 0.0941103771 0.0438397676 0.0601922981 -0.118923821 0.00787893869 -0.0531041697 0.113875292 -0.109500133 0.0344178565 0.141541094 0.0307099521 0.0475799404 0.014368386 -0.100353695 -0.0719752759 0.0654265359 -0.00429957313 -0.0957272798 0.0271172822 0.110823065 0.0169278141 0.0568863079 -0.069276534 -0.133120403 0.00440935837 0.0599037744 -0.0469732359 0.00138823024 0.0431643873 -0.10191042 0.150134429 0.008642192 0.142192066 0.0174124744 -0.0869763047 -0.11803779 -0.107885294 -0.0491586104 0.0506274253 0.0719966888 0.107418574 -0.0458016433 -0.0197793692 -0.0303321276 0.0357542187 -0.00806352682 0.100487992 -0.005694333 0.036399737 -0.0198279507 0.00676544802 0.092118293 -0.0150322495 0.0711214989 0.162287429 0.0369382612 -0.0261430293 -0.0871835351 0.142411575 0.121184953 0.0632946268 0.100556195 0.0407284237 -0.0109898066 -0.113332473 -0.106186427 0.107575953 0.143907622 -0.153654039 -0.0638230518 0.0305995718 0.132988185 0.081652835 -0.0233876687 0.107017577 -0.0767905265 -0.166556656 -0.0105404099 0.0141149433 0.0635384023 -0.111871935 0.0907980576 0.00804269966 -0.118557312 0.0431185737 -0.100534439 0.0564119071 0.0756336823 0.0178249553 -0.00336742634 0.0564142615 -0.149750248 0.0182771999 0.130948737 -0.101710722 -0.0547683798 -0.0196625255 0.034674041 0.10158132 0.0134325726 -0.041373156 0.0599192902 0.0563093834 0.051154837 -0.0561781973 -0.0940035209 0.0632690862 0.177850291 -0.181070313 -0.00652408926 -0.201005086 -0.114218839 0.00117255712 -0.0879168361 0.102634653 0.0958755091 -0.063499935 0.0531986989 -0.14315404 0.0927103534 -0.0427412502 -0.0629736707 0.0267244391 0.0136843361 -0.018167844 -0.0551244281 0.0936809033 0.137998328 -0.0170609243 0.0844054967 -0.117506772 0.0573059618 0.146154597 -0.032615073 0.11908564 -0.089305833 -0.134083956 0.0643926337 -0.0246150214 0.120126665 -0.00877655577 0.120310321 -0.11802426 0.0614242889 0.00180169509 0.0240441188 0.154864684 -0.0305702668 0.0721247271 -0.0840999484 0.010729501 0.0964772254 0.0645704716 -0.0467086472 0.00985399634 0.0280991849 0.0771205425 -0.0741963238 -0.0118962554 -0.00192059542 -0.0667895973 -0.0519636907 0.109554581 0.129359797 0.0772109255 -0.0398171395 -0.0809249282 0.124295674 -0.0455361195 -0.0265762322 0.103522845 0.0667068884 0.0039439355 0.095405139 -0.0770935491 -0.0869350657 0.0795649663 0.0179556701 -0.0722627863 -0.0696734935 0.047377646 -0.118734956 -0.128295243 -0.047324419 0.0367409773 -0.108777873 -0.0061607114 -0.0238418411 -0.0784358457 -0.0763253793 -0.198234141 -0.00679441448 0.0661441088 -0.0227980316 0.0361557156 -0.190477431 0.103639051 -0.0917363092 -0.0612637922 0.0407590456 0.102588452 0.16711618 0.0570059717 -0.156340435 0.0138962269 -0.141896531 0.0415649973 0.111470357 -0.107817017 -0.149055943 -0.0450178497 -0.0286511555 -0.111937493 0.0968908668 -0.1054914 0.0077145854 0.0238837004 -0.0718255565 0.0944492221 0.0189270284 -0.0503827445 -0.188493282 0.00196323777 0.0265102368 0.148908749 0.0829430893 0.101604857 0.0294106845 0.154803708 0.13018994 0.0105380574 0.0913637802 0.0826632529 -0.124140859 0.0442784056 -0.0297433231 0.100657351 0.00902002957 -0.0623644404 -0.0397874676 0.104016773 0.0310055874 -0.124041028 -0.13619335 0.0844944865 -0.081371434 0.18163988 -0.071104005 0.0217119269 -0.132472709 -0.00607029814 0.191314757 0.0203163773 -0.0231922083 -0.0223062448 0.121292427 0.0506380163 0.0980664417 0.0794765204 0.0387023985 0.14839375 -0.0648631379 -0.0600932129 0.0306179468 -0.0539141558 -0.106177092 -0.0728515536 -0.0577038899 0.0977575332 0.0240377486 -0.0891797394 -0.094041504 0.109772421 -0.0288979411 0.0762944967 0.0595407598 -0.0457438901 0.113537423 0.0807912797 -0.0695796981 -0.0137179494 -0.132821679 0.116547331 -0.101802535 -0.100854248 0.0622249655 0.0461030044 0.00356245693 0.0577933975 0.0102717504 0.13598901 0.0361791365 0.00650931848 -0.0819681212 -0.0793349743 -0.104400001 -0.0161599331 0.121525377 0.104667895 -0.0518300086 -0.182311445 0.0566781983 -0.0481765121 -0.177128777 -0.0565534644 0.0344127491 -0.0175193716 -0.107307933 0.141057238 -0.0662270933 -0.0868076012 -0.00239589997 -0.0248637013 0.105170086 -0.074582234 0.0683367997 0.067028977 -0.000158962735 -0.200189292 -0.0468249284 0.0396560654 0.182529435 -0.0469306856 -0.173302293 0.120823294 0.00351444818 0.069511652 -0.125125557 0.0458558984 0.0021825165 0.05499468 -0.111021951 0.133629665 -0.0321183875 -0.015692912 0.0896121562 -0.0915102363 -0.177947357 -0.0342570841 -0.0328579545 -0.0123066772 0.0803286135 -0.023187777 -0.0491544567 -0.120278426 -0.0732623115 0.0919887722 -0.0248432681 0.122243099 -0.00642651878 0.172061369 0.164449006 0.0528124198 0.108680978 -0.097486116 0.0318577923 0.122872986 0.0316347331 -0.146730781 0.170521379 0.113670133 -0.101835869 -0.0828505754 -0.198298752 0.128206164 0.148136333 0.086267665 -0.0441519283 -0.0860990062 0.107061818 0.0606063567 -0.100613289 0.123720497 -0.0675958842 -0.0462081991 0.0178149194 -0.00614400394 -0.0646216422 -0.0480992459 -0.101533271 0.0279040188 -0.0701907203 -0.167812794 -0.000121300392 -0.0750543624 0.102161966 0.040578533 0.0559973568 -0.0627935231 -0.117138483 -0.0289294142 -0.134059757 -0.0310640857 0.0920428336 -0.107178837 0.0639784634 0.0890504122 0.0630474016 -0.0634759665 0.121871211 -0.0506990366 -0.0683178604 0.0103983963 0.101033702 -0.0342747495 0.0525663793 -0.0510235913 -0.108300477 -0.0588656962 0.0561611205 -0.0158964247 0.0644027069 0.127004147 -0.106519602 0.158338472 -0.0595537946 0.100769401 0.126149327 0.0429680459 0.0403963812 0.0710144192 0.0813383684 -0.129751816 -0.0521937646 0.133111268 -0.14004235 0.0756941363 -0.0801039413 0.0553722791 0.0468027554 -0.0833579898 -0.0284802765 0.105506331 0.195595801 -0.066855669 -0.0260965042 -0.0887379423 -0.0388477854 -0.0807749629 -0.1331366 -0.102206953 -0.0599563867 -0.230846494 0.028174378 -0.100787058 -0.0937231481 -0.131028503 -0.0543581881 0.108856253 -0.0705846921 9.58164528e-05 -0.110371478 0.143118978 -0.12958017 -0.0934324563 -0.099794127 0.128233179 0.0194387622 -0.0659955144 0.0350118205 0.129758343 0.0472426489 0.0678448603 -0.0376501493 -0.0118634682 -0.122047298 0.0711878315 0.141840816 -0.0296881087 0.116151698 -0.0429492109 0.0950225294 -0.00721255364 -0.0543830581 -0.142613709 -0.0288441014 0.0832353607 -0.121546745 0.170462787 0.105554663 0.178534061 0.0117892437 -0.0100683114 0.113749191 -0.0249140505 -0.019145688 -0.0963394418 0.000388264772 0.0648209229 -0.0103955604 0.0143255061 -0.0415315591 0.0240258817 -0.0371302031 0.0768240616 -0.01418583 0.0811295733 0.0879714936 -0.115248926 -0.0713581219 0.1178689 0.0698966309 -0.0336048789 0.00201928988 -0.0550591946 -0.0363544337 -0.0436474159 0.162258908 0.0419544727 -0.0823282376 -0.0482466705 -0.0666661412 0.0753762349 0.141810775 0.0460080169 0.161856353 0.0414106771 -0.00860195234 -0.171763077 0.0236338377 -0.093883425 -0.0190209933 0.0804083794 0.0679617301 -0.156119794 0.114529878 -0.0305409674 -0.190090954 0.0716861561 0.0775363818 -0.0550183356 -0.0435959511 -0.0520840213 0.121374138 0.0322975256 0.0284757838 0.0285038706 0.000609732582 0.0751462132 -0.0380727649 -0.185566083 0.0273018703 0.0314848609 0.00786900241 -0.121225528 -0.193292528 -0.0371998549 -0.052829586 -0.171605438 0.134774163 -0.0607066564 -0.149268061 0.122642606 -0.139550909 0.061707247 -0.101528987 -0.0348934717 0.0267703272 0.0555875078 -0.0817701444 -0.0341688469 -0.0103890691 -0.141005069 0.00441572955 -0.0914884508 0.0611257292 0.125290722 0.0366947316 -0.0324403644 0.133746549 0.0615532398 0.0952002853 -0.0760848448 0.0778685138 0.0853565112 -0.139450684 0.0291694626 0.0526494607 0.111636482 0.0385362357 0.0397060476 0.058002241 -0.153726712 0.0414496809 0.0591149516 -0.126997575 -0.0331259035 0.0732826814 0.0278228223 0.101402797 0.0161702391 0.0103707984 0.00371706393 -0.00716470229 0.0235336795 0.0437317863 0.0629606321 -0.101728261 -0.077110447 -0.118988663 0.0286160707 0.11387036 0.111065753 0.0416700765 0.0544513501 -0.0929286852 -0.112763368 -0.100771315 -0.12747924 -0.118354246 -0.0347420759 -0.197862402 0.0785708576 0.00712709408 -0.0138631007 0.0505277514 -0.0974053666 0.114907004 0.0458957627 0.0137264365 -0.0531282574 -0.217447519 -0.145079151 0.0160919018 -0.130475089 -0.0450513922 0.151693359 0.0443581492 0.0291334111 0.0363421217 0.120321155 -0.11041113 -0.0578161068 0.146655068 -0.0965025425 0.0570704564 0.111013211 -0.0577352792 0.122837126 0.0259498078 -0.0375681072 -0.0893678591 -0.0958748832 -0.000796742446 0.0954284519 -0.0674728975 0.073281832 -0.109565921 0.0159228966 -0.100020841 -0.0121151097 0.12037541 0.0656266287 -0.0777170584 0.0231586639 -0.0794309899 0.0397974476 -0.0240134541 -0.102179423 0.112763748 -0.0427289754 0.0549921356 -0.0706166327 -0.0526472479 0.00806013029 0.0662889853 0.0638152212 0.0679247752 0.0836343244 0.0958156511 0.0946395323 -0.0484129861 -0.040075317 0.0961646959 -0.0589207709 -0.0882164538 0.0337109976 -0.110162936 0.0140934577 0.0633378327 0.0493977889 0.090164423 -0.0166315865 0.0837212503 -0.0728935748 -0.0357172489 -0.0373773165 0.015526684 0.0269641336 -0.0119811986 0.0191242062 -0.119407304 0.0349933021 0.147299409 0.0833325312 0.0269102789 0.0579857863 0.0136360265 -0.0117869182 -0.132594928 -0.116005339 0.0773236081 0.122651339 0.126051322 -0.145332009 -0.109838761 -0.111915633 -0.0397274904 0.055004485 0.0219932012 0.222020745 -0.103234015 -0.0239284728 0.090831697 -0.00721393246 0.0767079741 0.019174533 0.125329405 0.134039298 -0.107892767 0.11389076 0.00139475788 -0.0465536788 0.00657485798 0.0366138853 -0.0710791796 0.0345828682 -0.00654196041 -0.00414025132 -0.0461591855 0.0135140074 0.106823117 0.0309256837 -0.0538127981 -0.211840108 0.11968004 0.0812965631 0.0762291849 -0.165128484 0.101319239 0.174441919 -0.0805866495 -0.152437881 -0.134602085 -0.0368737765 -0.071352914 0.0569902956 -0.00516905123 0.00739913387 -0.044604864 0.00524767116 0.159651086 -0.0437920839 0.0757676363 0.0729405209 0.0174156781 0.0972612724 0.0194952395 -0.151837751 -0.0556944609 0.0265066866 -0.119301423 -0.136365443 -0.147239327 0.0677630529 -0.121022761 -0.0843952447 -0.113831021 0.0636209846 0.0670621023 0.0746588483 -0.136633083 0.136825755 0.0125173358 -0.0119865593 -0.168462515 0.0801323503 0.0596874617 0.0389277302 -0.164188161 -0.0757239014 -0.0259157475 0.0473492816 0.0981569812 0.122584976 -0.0239373967 -0.0095264744 0.141596809 -0.0994270593 0.148036599 -0.0926309377 -0.0879704058 -0.0907428339 -0.0415922627 -0.0158301275 0.147532895 -0.0813130736 -0.0243462026 0.055704128 0.129941106 -0.0495187715 0.164352283 0.00910833664 0.153649494 0.126043901 0.0782465488 -0.122365974 -0.0522040278 0.101046965 0.0323382914 -0.0345094316 -0.027456753 -0.00414584717 0.107160464 -0.0594008341 0.0919326097 0.0494240373 -0.130146056 0.0612126663 0.0250751842 -0.168850511 -0.0270834491 0.138455659 0.110401593 -0.00536563201 0.0123543264 0.00524925021 -0.0891003534 0.0422727913 0.115680531 0.025097318 -0.0620996282 0.006050108 -0.0219839215 0.013373062 0.0964105055 -0.17396611 0.138139024 -0.115437329 0.140812561 0.0154820522 -0.0875014514 -0.0506897345 0.0695440993 -0.0394875929 0.129780278 -0.133367807 0.0398275331 -0.0021519335 0.0661228895 -0.114609815 -0.162951663 0.0910746157 0.0311280359 0.155700073 -0.0936419889 0.0566285439 0.105879046 0.109816924 -0.0242232904 -0.0560404696 0.108176216 -0.0622098595 -0.0243516024 -0.122047901 -0.0383779444 0.0661297739 -0.140337706 0.0417054519 -0.0141851809 0.166473001 -0.101210028 0.0448278598 -0.0135148214 -0.135612458 0.157606721 -0.0677633286 -0.123700745 -0.139077306 -0.0766817555 -0.0533846617 -0.00341646373 -0.00187605387 -0.0420029797 -0.0990028828 0.039751634 0.0830714926 0.114225172 -0.049306225 -0.0116020981 0.122888215 0.114101477 -0.0240992904 -0.0480629504 0.102211274 -0.106934071 0.0045822449 -0.181206033 0.164602682 0.160901517 0.0224013831 0.168654829 -0.190988153 0.0654750988 0.0734725446 0.0489073396 -0.0278017893 0.0401863754 0.0312482677 0.111685 0.0375262201 -0.0891009718 -0.0783825666 -0.00643140869 -0.0823437795 -0.185352445 0.049962543 -0.093310982 0.078877762 -0.143183857 -0.00740667991 -0.052202452 0.15671578 -0.0327684619 0.0857125297 0.115055725 0.0150816478 -0.142763466 -0.0611794889 -0.0608555451 -0.0729765072 -0.113520235 -0.0719287694 0.0668114051 0.0131433932 0.0123614976 -0.130046666 0.0241245031 -0.0435174108 0.220040098 -0.0678881556 -0.123301744 -0.190432623 0.0862519965 0.0840143263 0.150894776 -0.047047507 -0.117321834 0.0393835455 0.107913703 0.0266455803 -0.100876637 -0.0344918333 -0.107660569 -0.165285066 -0.0349293835 0.0204208028 -0.00456617679 0.0177578256 -0.0945127681 0.00855987053 -0.0690713152 -0.0812081918 -0.0700691044 0.00634496706 -0.00749314809 0.12237446 -0.154797092 -0.0860093608 0.114392065 -0.0895502791 -0.0337758809 0.0599616617 0.031759467 -0.00843889825 -0.0395408161 -0.0878908113 -0.154833362 0.0107678222 0.0517593175 -0.128113598 -0.0654203668 -0.122140132 0.0492443964 0.0556454137 0.0172126181 -0.118665867 0.0979263335 0.108205855 -0.0829491615 0.111915946 0.0306938924 0.0952510014 0.0699821934 -0.0550596938 0.00620631129 -0.0755350664 0.0910361409 -0.0174119454 0.127604082 0.076724492 0.0645006821 0.14349547 -0.213917524 0.124526858 0.127100661 0.0714893267 -0.0313818231 -0.0797057375 0.0174841657 -0.0533339046 -0.142622858 -0.0389582701 -0.0862714872 0.0896983817 0.113933697 -0.0714638904 -0.0326122008 0.0586105585 0.131142735 -0.110592701 -0.0748916268 -0.0101225059 0.0235873982 0.08350721 -0.134794638 0.1765396 0.0664843172 -0.0777663291 -0.0610577017 -0.161026165 0.0573920459 0.0131069114 -0.125357345 -0.00257289736 0.0347935222 -0.144093484 0.14905791 -0.103688858 -0.133068576 -0.0845455751 0.159671828 0.0310684871 -0.0934139788 -0.0253653191 -0.138933659 0.187682003 -0.111113556 0.0257472172 -0.114702508 0.0994123816 -0.16753684 0.0474913493 0.172500208 -0.0306320898 -0.0845677033 -0.0919087082 -0.0773599744 0.126647502 0.0413891561 0.0738088116 -0.179777101 0.154171512 -0.19478178 0.0275413599 0.0488311499 -0.140697345 0.144725055 0.0316870399 -0.110505402 -0.0234380607 -0.142937407 -0.104115084 -0.193902075 0.171155617 0.0199778713 0.0162550732 -0.105932988 0.0507320538 0.0759840459 0.00785387866 0.108866408 -0.0400313586 0.00881638285 -0.0400872864 -0.0928921998 0.0767397135 0.0703064278 -0.128658175 -0.0689174905 -0.137887031 -0.138006434 -0.0448805578 -0.0305936746 0.071157515 0.0588997714 -0.0279776677 0.0875421092 -0.011467603 -0.107023865 0.0250445791 0.0312705673 -0.0564958081 0.132708728 -0.184045866 -0.0560483932 -0.0150446733 -0.0940048248 0.0640625805 0.0362599865 0.0424006954 0.0594548173 0.177136868 -0.0968239009 -0.0539667569 0.0234972257 0.0124671105 0.233689085 0.0487623699 0.0543667711 -0.0416228957 0.0915387198 0.0176348183 0.0199340228 -0.0247198865 -0.204847053 -0.0306489114 -0.153489321 0.0639852881 0.0405398719 -0.0304308385 0.0767493844 -0.143459678 0.0903120041 -0.0584986992 0.0400932543 0.0569380298 0.12448626 0.0894616693 -0.0730259866 -0.02707964 0.0709407926 -0.226133227 -0.0461166911 -0.0808899179 -0.00304049742 -0.00325228926 -0.101995036 0.0558241345 -0.0433625318 -0.159139395 -0.0689007938 0.126766041 0.144669667 -0.0734773129 0.0227621812 0.0734513775 -0.148231804 0.0882792026 0.0146882683 0.102611877 -0.0384322368 0.014518843 0.0334576704 -0.000224458301 0.0480790399 0.0276022796 0.0923633873 0.0860731229 -0.215609327 -0.0142863374 0.0756238103 -0.0855609924 0.068873629 -0.0125537552 0.0411519706 -0.0445807576 0.133133233 0.0891171992 0.0832965448 0.165659636 -0.0288041979 0.213023379 0.183629736 0.0619611703 0.144226059 -0.0907134563 -0.0885968059 0.0482008234 0.0843880847 -0.0655011386 0.0440109223 0.05738445 -0.047525268 0.0159834847 -0.200962991 0.0767789036 0.0571492612 0.0799609497 0.0893511251 0.144846275 -0.12923786 0.0015385102 0.0187745988 -0.0830631629 -0.0873103142 -0.10593126 -0.0983454809 -0.0854969919 0.103391632 -0.181225166 -0.0574011058 0.129572675 -0.0527581088 -0.145448163 -0.110377647 -0.00377062568 -0.0763023496 -0.0973271653 0.0105899097 -0.12945807 -0.0339320116 0.112820238 -0.100050405 -0.0018944646 -0.0622226298 0.0891798288 0.00704239123 -0.03865394 -0.0294242855 0.102794185 0.00633916026 0.108887404 -0.108490959 0.127916366 0.0329085141 0.0547309518 0.106735848 0.0217151679 0.00314644398 -0.080114603 -0.0162426271 -0.044867631 0.0395403169 0.0985700414 0.151386857 -0.0161408409 -0.0529764034 0.0443870313 -0.0860672817 0.094031781 0.0165789947 -0.0979778916 0.0172201004 0.067876637 0.000274875842 0.139383137 -0.031424135 0.0825058296 -0.0691656321 0.0886655077 -0.0364882611 0.0269891713 -0.0449025594 0.0186617263 -0.0560340136 -0.149610817 -0.0927565023 -0.0767424703 0.112878948 0.117345534 0.0755049288 -0.146121472 -0.0885582119 0.0959487036 0.0756164342 0.10138806 0.115305342 0.083121933 0.0492149517 -0.104501218 -0.144861624 0.0678105876 0.172525674 -0.060875915 0.0430061556 -0.123546809 0.0511119477 0.149533868 -0.0449184328 0.117090285 0.0182822514 -0.020191323 -0.0431723669 -0.0483720973 0.0193348881 0.0161511656 0.0653366074 -0.151146144 0.0848383754 -0.0598689914 0.0437427349 -0.00650623627 -0.0504703298 0.0245255735 -0.13574554 0.118671902 0.0762180239 0.0683379024 0.0831491873 -0.135392979 0.0400363319 -0.0534309372 -0.0743137151 -0.126671523 -0.0245995428 -0.0717506707 -0.0267321412 0.095047541 0.0280411318 -0.0795124397 0.0941188037 0.0197920334 0.0557814464 -0.046671465 0.0067257504 -0.154799372 -0.00156313309 0.0061205402 0.156524345 0.145827726 0.0993061662 -0.0585213155 -0.0796838924 0.0359437875 0.0403396972 0.0252962448 0.00365642016 -0.159494638 0.0089545846 0.0106750689 0.0147483684 -0.00858495012 0.0195326675 0.0306121577 0.081079334 -0.123515509 -0.0749876276 0.0843198374 -0.216470197 0.0689783096 -0.0815815553 -0.116322838 -0.0133263618 -0.0804850236 -0.1172968 -0.00235384144 0.0600326248 -0.00756705366 0.0338275209 0.00220891228 -0.177905545 -0.0165852308 0.079880394 -0.0533708185 -0.0411532074 -0.0361252315 0.112516731 -0.148771197 0.0475240722 -0.0431417897 -0.0460454077 0.0803947747 0.0293727517 0.162652791 0.19191584 0.122495666 -0.0382460952 0.00649118097 0.100629702 -0.00214905012 0.162350029 -0.0126023944 -0.00364698283 0.0522844344 -0.0317890421 0.0131891947 -0.0918280408 0.0894595906 0.121140853 0.159429803 0.13178499 0.0480147712 0.0333200842 -0.0616565868 0.0869593173 -0.125420108 -0.0895289853 -0.118700609 -0.0924820676 -0.0234089363 -0.0632468387 0.108163893 -0.168591768 -0.0315050781 -0.165202677 -0.0158102755 -0.13492088 0.0195234064 -0.115094706 0.0543472208 0.00270891888 -0.0896911994 0.0235184617 0.0916195959 -0.129312411 0.145581692 0.0111814197 -0.202431947 0.067841582 0.0265730619 0.0116652213 0.0463579074 -0.0376328565 0.0436126515 -0.0266107507 -0.0745452046 0.110094167 -0.050672017 0.181749657 -0.0723045468 -0.044635158 -0.0552566908 -0.131625295 0.0885249302 0.19267492 0.142212197 -0.00169243349 -0.0451140031 -0.0312753282 0.0153087117 0.0535034426 0.0613240562 -0.0419296473 0.00480116392 0.0210684333 0.0825924799 0.0911064595 -0.035066314 -0.0592860915 0.0997618288 -0.0489916168 0.0151579874 0.0128909349 0.185554296 -0.0429939926 0.0824865997 0.12965782 -0.0214553606 -0.0450417884 0.0833971873 -0.0276554897 0.0633013323 -0.0438787639 0.0487938896 0.118226342 0.0869305283 -0.0772253275 -0.120844036 0.0322188474 0.179645672 -0.0245095976 -0.142782152 -0.0818219185 -0.00855651312 0.167771205 -0.107446395 0.129612625 0.00600983901 0.0322593227 0.0393249206 -0.0400542654 -0.00719651952 0.0668645203 -0.0463039018 0.0925276801 0.115200274 0.0975857899 -0.0475167707 -0.0131902285 -0.127589911 -0.136285692 0.0467663556 0.0378039517 0.00324032665 -0.0409172848 -0.051438842 0.0854874253 0.000942132378 0.0911880434 0.104341246 -0.062834397 -0.0519197956 -0.0656272471 -0.0848913342 -0.105991714 -0.0935416445 -0.0810228959 -0.117254689 -0.047730457 -0.0537297092 0.0829302818 -0.0699734017 0.162337914 -0.105627961 0.133608758 -0.0433580317 -0.00975758117 -0.196030557 0.0922760367 0.0202878471 0.0932621956 0.00830946304 0.0469457135 -0.042723231 0.0861469582 0.00666076597 -0.0732247233 0.0651570037 -0.0127868988 0.0979198739 0.00310732983 0.0154234953 0.102872372 0.0325016417 -0.0709774941 -0.0130392071 0.0161771681 0.12599425 0.0473357588 -0.0427744165 -0.0790744722 -0.00152778649 0.0266908798 0.0166356731 0.0509395674 -0.0387014076 -0.0517205596 0.182636663 -0.026289586 -0.0612355843 -0.0608986095 0.129237518 0.161707312 -0.101600975 0.102400146 -0.0298524834 0.0235266145 -0.0589709319 0.0589292757 0.0391444825 -0.0490691774 0.0166421104 0.140758619 0.0623333752 -0.0379186273 0.00623600744 -0.141380191 -0.109080248 -0.0865002126 0.121982776 0.00890759844 0.0754824802 -0.0557432212 0.090410009 -0.0762102306 -0.156965703 -0.00462080212 0.135900944 -0.072777167 0.0253676344 0.0433703288 0.182432905 -0.0227354113 -0.10988193 -0.109565653 -0.117213286 0.0220033731 -0.0392691232 0.0689252466 0.0947399437 0.0880655944 -0.0916402563 -0.0866965652 -0.021847453 0.0322489142 0.0782373473 0.172708422 -0.00776173919 0.078853406 -0.00449884869 0.0520438813 -0.0945020467 -0.0364131406 -0.115553811 0.027042741 -0.0131788058 0.163859054 0.111129396 0.03013549 0.115106955 -0.012167763 -0.0438912138 0.103920251 -0.00915669557 -0.0151112042 -0.0821918324 0.188131526 -0.00887087639 -0.165808171 0.0347626321 -0.151287198 0.183645949 0.0268213116 0.16673629 0.0113114184 0.117534906 -0.10465581 -0.0911837965 0.193818167 -0.154029995 0.0407823734 -0.019853346 -0.0409871414 0.0982205793 -0.148405671 -0.0657256842 0.00871753134 0.0885037705 -0.123024367 -0.0758189783 0.0220286138 0.0206746086 0.102392986 -0.0930260345 0.0234228726 0.0155609511 0.0710357204 -0.06794741 -0.153664991 -0.161214784 -0.0252669267 -0.0997454152 0.0680369213 0.177967653 -0.058038123 0.017085854 -0.0285199862 0.119232573 -0.0814174935 -0.0461011082 0.163870379 0.0959168822 0.0283391867 -0.0691883042 -0.12791431 0.0749187469 0.185117334 -0.122552462 0.128649309 -0.0165936761 -0.0369392522 0.0415271334 -0.0856927782 -0.0208188407 -0.087550275 -0.0729716346 0.0528827608 -0.0346126482 -0.0612489469 -0.0937750265 0.0301356893 -0.0628160909 -0.111972995 -0.142356217 0.0254431702 0.0559445024 -0.0221493877 0.148098007 0.046730727 0.159226209 -0.111875534 -0.0123067843 -0.105162524 -0.0787722692 -0.0805339143 -0.0197652075 -0.020120874 0.0905717611 -0.159865901 0.115682028 -0.128964975 -0.0539414063 0.0307042096 -0.122511365 0.128573641 -0.0414479896 0.0379069075 -0.0927568749 0.0887888297 -0.167822689 -0.122785985 0.0345796533 -0.0551093072 -0.00677969866 0.00595474523 0.035613358 0.0749851987 0.0440459065 -0.132456362 -0.0181075968 0.0640509054 0.0636913851 0.0379096009 0.100868225 -0.0448842458 0.0474589542 -0.0389249325 0.00722996984 -0.0780614018 -0.197713196 -0.033574041 0.117044494 -0.137496471 0.0518635474 -0.132987902 0.056407474 -0.152992189 -0.0626498014 -0.0624144189 -0.0175040122 0.0429556966 0.0751795471 -0.0447424948 -0.0509162806 0.0392500497 -0.0588108413 -0.0316441283 0.016544072 -0.0186237115 0.16266644 0.159989819 0.0267653558 -0.0414715521 -0.093871139 0.088239342 -0.128065377 -0.121039622 -0.00276211346 -0.126669288 0.0385091454 -0.0448302478 -0.0557908788 -0.04627873 0.0741664693 0.136581421 0.0123468861 0.0235691238 -0.187118411 0.041598022 0.185359642 0.0937230587 0.0527318567 -0.100633077 0.182212532 0.0741858408 -0.0856217965 0.00845839456 0.0310803857 -0.0332061164 0.0335289054 -0.0270733144 -0.00379402237 -0.0125252688 -0.0876403823 0.0168399718 -0.0964786112 -0.057989154 0.0937554762 -0.127184331 -0.00251509668 0.0649063811 0.00698436704 -0.0203686301 -0.173752502 0.0515241921 0.0409296714 -0.139621481 0.144490287 -0.165914878 -0.0451327339 0.0976438746 0.0459914766 -0.0971358642 0.0224826075 0.0912896842 0.152459934 -0.0776524618 0.00170002761 -0.061352782 0.163576737 0.0416674167 0.0850661993 -0.119487345 -0.078735739 0.0340637378 -0.00817169528 -0.0573318899 -0.0257468 0.0559101477 0.140762433 -0.0798978731 0.107531413 0.123787329 0.113637663 -0.0547618829 0.0599501356 0.17044428 0.0550565459 0.151891083 -0.14607358 0.0577261001 0.146254733 -0.0551643707 0.104695655 -0.0113988742 0.176620886 -0.0695677251 0.063530162 0.0202326216 0.0671254471 0.0525350757 0.12709555 -0.0663976744 0.135054454 0.0205399543 -0.0682867542 -0.00953721441 -0.0707264915 2.21138157e-06 -0.0821680576 -0.113811031 0.0495822765 0.000442222634 -0.105856381 -0.0461616069 0.00280243903 0.0754530206 -0.127278641 0.0430985503 -0.0134170121 -0.141296789 0.0968927443 -0.141887039 0.0401172787 0.08660575 -0.0999350026 -0.113692865 -0.0829191878 -0.0532895885 0.0730076879 0.147051558 0.101233073 -0.117087856 -0.022528993 0.0778329745 -0.0405302234 0.113735169 -0.138524279 -0.0152461892 -0.0264413599 0.0567660183 -0.058891058 0.00062199746 0.0919227153 -0.16938372 0.00490240986 -0.0178496577 -0.0424484871 -0.0701585785 -0.114764735 0.145202249 -0.0668703988 0.018972544 0.0952749029 0.0849160403 -0.00612954935 0.0126768155 0.0101305824 -0.0734497681 -0.02099609 0.140599281 -0.0100412108 0.0345162377 0.119638398 0.0742528141 -0.0242736582 0.00361796003 -0.0744405091 -0.0389819816 -0.0164255034 -0.0539820939 -0.0433792733 0.0363795385 -0.0949374512 -0.180119902 0.0221693795 0.0150040882 -0.125190139 0.0633102655 -0.0884933993 0.0583247431 -0.0721528828 -0.0627504438 0.0849531814 0.0267880447 0.155615807 -0.0197356679 -0.201189399 0.159886733 -0.131772444 -0.0379873887 0.0691665486 -0.014992686 0.106328145 0.0191370118 0.0601715483 -0.160286456 0.145151213 -0.0368021615 -0.0452294797 -0.237483129 -0.0745704472 -0.112101704 0.0726478919 0.00444497075 0.0495686308 0.138911858 -0.0424880162 -0.0962095335 0.130389079 0.0377608575 -0.133306086 0.128466323 0.13529776 0.0672826916 -0.0585005395 -0.0403117202 0.0766413882 0.0729533508 0.00284391874 -0.0183309484 0.232351884 -0.10224694 -0.0329320356 0.178131163 0.0304230638 -0.0327208228 0.161616087 -0.0650877357 -0.0758163631 -0.110402949 -0.0452446677 0.0425125174 -0.149505049 -0.0580147877 -0.0645497367 -0.0560327508 -0.120592482 -0.0916683972 0.075244762 -0.106040582 -0.183208331 -0.114143327 -0.0436959043 0.102034673 -0.0895727128 0.00149661524 0.0313695818 -0.051693894 0.0610896945 -0.169511631 0.0336394571 3.71766764e-05 -0.0185804442 0.0304552019 0.0223918762 -0.125670254 -0.0169649459 0.0118116299 0.130773887 0.0285248924 0.148897037 0.00976674072 -0.104569852 -0.0715612844 0.0719948635 -0.085263744 0.0540478267 0.119837753 0.125935659 0.127100527 0.0115929646 -0.00656933524 0.00697078183 0.112068817 -0.0899501592 0.110953219 -0.0699484944 0.108905308 0.0734886676 0.0147677111 0.039882917 -0.0566172339 0.0826230571 -0.0627713427 0.0625442043 -0.0733442083 0.0353681147 0.0770433173 -0.0916778371 0.145967469 0.0622237958 -0.0806232616 0.0109738866 -0.0660902187 -0.0747835189 0.043979805 0.123058476 -0.0186732598 -0.0934809744 -0.0684974641 -0.0601166338 -0.104581229 -0.131761327 -0.0023195555 0.0534868985 -0.0559232719 0.127695099 -0.138180837 0.0875557214 0.0851531848 -0.171189189 0.161168933 0.0950534344 0.0817008242 0.130936474 0.120836496 0.0558641702 -0.119315967 -0.0112348227 -0.0809654146 -0.0164812002 0.0702193826 -0.025853198 0.17453824 -0.129069492 -0.0790586844 0.0276387893 0.0375645123 0.0926661864 0.0623868406 0.183587044 0.0668085217 0.0964758247 -0.131487295 0.000731711567 0.0502480417 -0.00270478521 -0.135863572 0.0185782854 0.0286307074 0.14076753 -0.0488428473 -0.0971329659 -0.0875059962 -0.0490991883 -0.0330815613 0.0140130483 0.17718333 -0.00486162491 0.1108796 -0.0298230778 -0.047571674 0.00737295765 -0.0672645047
-0.030310832 -0.117291056 0.0502113774 0.119951963 -0.0266272649 0.133084595 0.0755952075 -0.0454901345 0.137408018 0.0620617494 0.0271648355 -0.0600918755 0.0634787753 -0.0944686607 -0.0639720336 0.0714380369 0.0975951552 0.122319989 -0.0678545758 0.109376781 0.00515973615 0.123364232 -0.024556512 -0.00234580925 0.0333770439 -0.0401529819 0.142042324 -0.0731095374 0.150914446 -0.0624293759 0.0134593919 0.0362641104 0.0920513868 0.0560601205 0.0341468118 -0.0777761787 0.0727938116 0.0365972109 -0.0297755133 -0.0719173551 0.0848882645 -0.0829584822 -0.00413368223 0.0737301558 0.108447805 0.0869384259 0.139844105 0.0136954924 -0.00754352985 -0.0161153991 -0.0835502148 -0.009337998 0.142393485 -0.0490240976 0.096459128 0.0184452478 0.0333465934 0.0266408436 0.0147078345 0.0557331517 0.104153909 -0.0162778385 0.0857596099 -0.0833594948
64 64
0.0579684079 -0.0353538394 -0.160509497 0.0886896625 -0.101033889 0.1690474 -0.202395961 0.130450994 -0.0245916303 -0.0499614738 0.0315989852 0.120976098 0.0278666355 -0.143871486 -0.0489783287 -0.0743491873 0.0537235625 0.0686299205 -0.0909480378 0.174203351 0.00231379131 -0.162496641 -0.206233963 -0.194935128 -0.0163986143 0.0296121296 0.00950610265 -0.0207398776 0.122441627 -0.131788567 -0.102657139 0.125355944 -0.120882273 0.0459288359 0.0208623707 -0.222497091 0.111659251 0.0591574796 0.0696982592 -0.086724624 -0.145039946 0.0802022889 0.0232421514 0.0882925987 0.0923889279 -0.148900598 0.116927154 -0.199149013 -0.037185438 0.110269308 0.0967693031 -0.240183204 0.212787718 0.215272248 -0.174711749 0.0420109257 -0.115875617 -0.101052471 0.210392445 0.141302675 0.0772465318 0.251790732 0.0283127185 -0.131901562 0.0590875894 -0.0990620181 -0.0168871135 0.101874918 0.0166613515 -0.0584574826 -0.0534134358 -0.0596675314 0.047859177 -0.033976391 0.0634736493 0.0396432802 0.0951257348 -0.127734482 -0.00132911967 0.0323083922 0.163149208 0.0251962468 -0.0656784624 0.139307082 0.0161520448 -0.0483692922 -0.168030754 0.00191973301 0.0971812308 0.201796755 0.0655134618 0.0190108195 0.102523483 -0.0472506545 -0.194230303 -0.00600972213 -0.125647128 -0.0513617098 -0.0313178077 -0.120891593 0.117493331 0.0429280922 0.137406304 -0.0777722895 -0.0918867737 0.0841739848 -0.0493694022 0.0987511948 0.00135542999 -0.0628913343 -0.00704359217 -0.0658086613 -0.0743980482 -0.0377557725 0.128029317 -0.000823811803 0.0254731514 0.112059012 -0.158593118 0.122291297 0.027357053 -0.0956989899 0.112725683 0.107174248 0.043368917 0.151836082 0.099837184 -0.0961121768 0.19543758 0.0408444107 -0.0608154312 -0.035721615 0.00934754778 0.0656301454 -0.000205165124 0.0431994535 0.0572049096 -0.130021825 -0.0851786286 0.0239409842 0.0251010507 -0.134657413 -0.141161561 -0.111431018 0.00659157243 0.0271111708 0.0432315171 0.0766082853 -0.0183321722 -0.105705597 -0.097766757 -0.157647878 -0.0127079813 0.218123674 0.0303717256 -0.137720674 0.0708579645 -0.226194039 -0.0252769087 0.0551830679 -0.0932690054 0.0343899652 0.0747683644 -0.191078708 0.0155279292 -0.0481478274 0.063878566 -0.184596092 -0.118600868 0.076643087 0.0868702382 0.123417065 -0.117219292 -0.00250518299 0.0627015606 -0.17479822 -0.127879679 0.207451597 0.0190692227 -0.19336468 0.0910083503 -0.00837269984 -0.164950162 -0.028604243 0.0435204357 0.0274551641 0.234516159 -0.0326121971 0.0536169149 0.260659188 -0.0642402023 -0.0311419293 0.0292001069 0.0581304878 0.0469634943 -0.0440052152 0.0371776223 -0.0383938514 0.0111526512 -0.0737474561 -0.0432739593 0.115516417 -0.0606445931 0.0221958905 0.0260141417 -0.00730324723 0.0996972024 -0.116684474 0.0710863546 0.0302217752 -0.0556858629 -0.0817155093 -0.0909982994 0.0344120152 0.116172805 -0.045448795 -0.0180309098 -0.0308662951 -0.0802315027 -0.0974535048 0.000697064504 -0.0820871592 0.0620816685 0.0992319882 0.064610824 0.100569107 -0.0461487137 0.0203493088 0.00400407379 0.0267199837 0.0294456091 0.0445389003 -0.0925801545 0.00634157658 0.0189478546 0.0387542732 -0.0395310782 -0.012849912 0.105975725 0.101515166 0.0286882874 0.0953782573 0.0960014462 0.0378739089 -0.0779705569 -0.0566423982 -0.109536663 0.0672598034 -0.0712682754 -0.0352618843 -0.0227142274 -0.102805607 -0.0289198365 0.0571058393 -0.0531817153 -0.11186175 -0.0613628328 0.0348709859 0.04956761 0.107579224 -0.121391416 -0.0774206519 0.0327560641 -0.10032405 0.05654452 0.0144240353 -0.078065075 -0.0549496859 -0.088314496 -0.0743177533 0.105366826 0.0224995427 -0.123689309 0.0235491432 0.0861047879 -0.111991756 -0.0963661 -0.00806807447 -0.0517132618 -0.0244374461 -0.000320053106 0.0217797458 0.111846276 0.0699128434 -0.13058579 0.0916358754 -0.108780295 -0.00622435007 0.0292813107 -0.0472039804 -0.120769732 -0.107217692 0.062182501 -0.0849850103 -0.0896827132 -0.0924542472 -0.0511558205 0.0441452339 0.0140160667 -0.0509842448 0.0954295993 0.0608302392 0.103442281 -0.0585783757 -0.0601799041 -0.118659124 -0.0853180736 -0.00315069803 -0.0226591937 -0.0778375417 0.0354870521 -0.0682753697 0.101914257 -0.13128534 0.0332661271 -0.0996621326 -0.086381048 -0.0519870371 -0.0490570031 -0.0340077989 0.0371333063 0.106623553 -0.0314488485 0.0100327637 -0.101985574 -0.0319735408 0.106154762 0.139731228 -0.0349977165 -0.00659898389 -0.0223695133 0.0241563823 -0.114450127 0.0593562163 -0.0292555448 0.0505445972 0.0166520961 0.103016987 0.0636579543 0.0438493304 -0.0193900466 -0.0742592886 -0.0963201448 0.0159693733 -0.0869503841 -0.0844636708 0.0136081818 -4.87492289e-05 0.061569754 0.0899467692 -0.0622268319 -0.0385736115 0.0629273206 0.110571079 -0.0363254547 -0.0285276324 -0.0415978655 -0.103300259 -0.0530846715 0.0837389901 0.00868496392 -0.0594116449 -0.10526105 -0.10945408 0.0618682094 0.104114965 0.00771133881 -0.0390755758 0.0543087944 0.0587516762 0.016810596 0.0338915437 0.0894277468 0.071995683 0.00869021006 0.108911917 -0.053282965 -0.102800481 -0.0955144539 0.112010211 0.0918250605 0.0366758332 -0.003168297 -0.105197296 -0.0500511527 0.0630847514 0.0641025528 0.101502307 -0.0810531899 0.0535767972 0.00948407687 0.111817129 0.0741861686 0.00997997448 0.0618122146 -0.0358651914 0.098813355 -0.0940265879 -0.0662391856 -0.0976729468 0.0705334321 0.0924562737 0.10601753 0.046396181 0.0987486243 0.0824469775 0.103715867 -0.0649716407 -0.0697577521 -0.0859913826 -0.1119418 0.063763693 -0.0945586562 -0.0516687483 0.00940170325 0.0218998864 0.0905802548 0.00474562356 -0.0873541683 -0.0502268337 0.0385182276 -0.112914175 -0.00706606824 0.115326568 -0.0775235742 -0.0748521313 -0.106175222 -0.0106253885 0.0097335605 -0.0506230704 -0.0442897864 0.0117229456 0.107648432 0.0588682964 0.0203286558 0.0532359965 0.0911701247 -0.0558325686 0.0213350076 0.0928315595 -0.101441458 -0.0964393243 -0.0311513189 -0.117907785 0.0113493791 0.0227759276 -0.112893865 -0.108445212 -0.0522702374 -0.00717345718 -0.0663561895 0.0868314952 0.0249388311 -0.10721276 0.065155752 -0.0397423431 0.083511956 0.0460181162 0.00237833825 0.0460791029 0.0645566136 0.126733497 0.0511501543 0.0245903619 -0.0139968451 -0.0379649289 0.0800970942 0.0364034362 0.0784638524 -0.0881082267 -0.0547250099 -0.0585356914 -0.0182328802 -0.00328644877 -0.000723362551 0.159897014 0.0620096065 -0.0509052202 -0.00749611296 0.118000694 0.023353532 -0.0956487879 -0.0338753723 0.0516413003 -0.0683526546 0.0775617808 0.0132906819 -0.0650636256 0.10516499 0.0454824269 0.08570306 -0.000921802362 0.120054953 0.0591072142 -0.0966253355 0.00877946336 0.0862016082 -0.0446555503 0.0705475286 0.148453102 -0.0695667565 0.14874208 0.0256355163 -0.121310614 -0.0472179726 -0.00546168583 -0.0385961346 0.0017762474 0.0925475433 -0.0609241426 -0.0637054294 -0.0961199775 0.128273934 0.12725769 0.136548117 0.209314525 0.148438215 -0.0332044028 0.0708948001 0.176008493 0.193087354 0.162681282 -0.0501698442 0.148499057 0.201147914 0.126650289 -0.0699067935 0.0288220756 0.113238916 0.180959493 0.124976404 0.107343063 0.0741500482 0.115896255 0.0170120578 -0.0427320637 0.100377992 0.108493567 0.136111304 0.0418262929 0.182029054 0.213680297 0.0675497949 -0.00844272785 0.106466465 -0.075064145 -0.0121287573 -0.075250715 0.0833052769 -0.0579898208 0.0204843953 0.0113102011 0.124524437 0.105820842 0.0178604163 0.0867738947 0.0249297414 0.107991651 0.108209401 0.207259521 -0.0379253551 0.157502502 0.13941884 0.0775212571 0.110734113 -0.0183563251 0.172466844 -0.0832677037 0.093044728 0.0830138996 -0.0914664119 0.154662758 0.083919622 -0.0550255626 0.0941946805 0.0917751417 -0.238305539 0.0694173127 0.107691169 -0.0125501957 -0.0294886213 -0.0770363286 0.193291053 -0.078611061 0.0418961495 0.125369191 0.089641884 -0.034225326 0.0761349723 0.074737832 0.128206149 0.0157711264 -0.046118401 -0.107404158 0.121003732 0.0723342597 -0.125260487 0.157093331 0.192410335 0.0578153767 0.0314560011 -0.113944747 0.0389130674 0.0947551504 -0.0684605837 0.106952481 0.18659848 -0.142975822 -0.020216411 -0.108782999 0.0684851706 0.187615812 -0.103549458 0.0726529658 -0.0194661729 0.0836502463 0.111243196 -0.024310397 -0.0686914474 0.0134161841 -0.0220981594 0.0582363531 -0.113866441 0.136480689 -0.00682539679 -0.0959088728 -0.113031045 0.203107998 0.0528771132 -0.0997451916 0.0700451657 -0.021600198 0.163358822 0.152362272 -0.191231102 -0.105292536 -0.0985718295 -0.214450434 -0.0634750351 0.033467643 0.178212881 -0.109465018 -0.113541253 0.051847063 -0.102997325 0.0662098601 -0.0542148687 -0.075570561 0.0340818502 0.0600565635 -0.0538395196 0.118473075 0.0918707848 -0.0184669103 -0.0730149746 -0.167321593 0.0599677823 -0.0124434792 -0.0337445214 -0.0228524152 0.131902546 -0.0953185707 -0.0742353871 -0.104606561 0.012661064 -0.0768043771 -0.100949191 -0.0404316299 0.0619402118 -0.0923245251 -0.151299566 0.0240120236 -0.124123156 0.0218343418 0.0724066421 -0.0856359079 0.151980355 0.126163751 0.0191340912 -0.10146036 -0.0427020118 0.0249899253 -0.0221376661 0.139768168 -0.132620722 0.0832781345 0.067321986 -0.0768203735 0.0569657348 0.0234820787 0.155555338 -0.024118688 0.0383804776 0.0779913887 -0.0553866997 0.155595645 -0.0362534188 -0.00883757509 0.238168046 0.0217099097 -0.120307811 -0.0199478827 -0.114344344 0.0295044798 0.264292866 -0.160648033 0.000187449536 0.0794313923 -0.128421083 0.165113702 0.0832535326 0.145944014 -0.0947528556 0.0539286695 -0.0676077455 0.0900685191 0.0450694561 -0.121000595 -0.109365903 0.0146542322 0.0579275414 0.0226193424 0.0564134605 0.135331854 0.135432765 -0.0975398347 0.0254912544 -0.17806761 -0.071132578 0.164656967 0.0675428957 -0.0318668112 -0.0280515552 -0.0307294633 -0.101152331 0.0963840038 0.0358358733 -0.114791654 0.131282523 -0.00989676733 0.0399797745 0.151451722 0.135103196 -0.0484935716 -0.054080572 0.0110165272 -0.0144847957 0.0944420919 -0.0891289115 0.0796748847 0.141403928 0.0419173278 -0.0341401026 0.117451407 0.111433499 -0.0867898241 0.0899550468 0.193984032 -0.00033221909 0.147389904 -0.00570980413 -0.103469953 0.255311877 0.143673107 0.0601946376 0.151762828 0.0649233237 0.0785525441 0.0275750346 -0.0785200521 0.0862263441 0.0846408606 -0.098983407 -0.0833317116 0.106655411 -0.104805671 0.0490117259 -0.0116839623 0.0336017981 0.124454319 0.0243419521 0.15819554 -0.0834427029 -0.0179940592 0.0890494138 0.0727235749 -0.000284783397 0.0508748069 -0.0581954531 0.0674151182 0.0866661593 -0.0884395167 -0.0656013861 -0.12143895 -0.0764900148 -0.0249313787 -0.0640655905 -0.0558343269 -0.0602008551 0.0295788199 -0.0948369876 -0.0391027369 0.0234232787 0.104349747 0.105477795 -0.112703376 0.0863984376 -0.0887653381 0.119602188 0.114079267 -0.0201213062 0.0730944499 -0.0598103814 -0.0539236516 0.00158591836 0.113854036 0.131595165 0.0931953564 -0.0127746183 0.0287161935 0.0367526896 -0.00407821359 0.0611524433 -0.0178817566 -0.0781269521 0.0378451422 0.00362996198 -0.0996222422 -0.0639733076 -0.0317083076 -0.056949567 0.0919706896 0.109475128 -0.126868144 -0.1028933 0.0941989571 -0.108413368 0.0936430246 -0.194124937 0.0107015306 -0.0750881657 -0.076196596 -0.104453318 0.135061532 0.00802554749 -0.178054109 -0.205202684 -0.0251765214 0.0400655121 0.163552999 0.0164819825 0.180204675 -0.0140687721 -0.151536033 -0.0492841117 -0.10299436 -0.0485570692 0.109546654 0.0708245635 -0.107453458 0.0231573582 -0.171911106 -0.0839521289 0.0250998437 -0.138931751 -0.0297642387 0.00879401993 -0.074827984 0.116815813 0.143325359 0.134876817 -0.211348385 -0.12257845 -0.056019567 0.0296063796 0.127579764 -0.104340002 -0.036984697 -0.0100459959 -0.0699209049 -0.0849620551 0.212404907 0.16989553 -0.122898586 0.183769599 0.169451028 -0.0293745473 0.0241090264 -0.0810481831 -0.128617391 0.142972767 -0.00771277584 0.146362901 0.166968659 -0.00853561424 -0.126881734 -0.108349532 -0.0240901131 -0.0332578309 0.105168581 0.103685893 0.0499189943 -0.0240359511 -0.0823796466 -0.0224526823 -0.0640561134 -0.0878847837 -0.0484453142 0.039252378 -0.0620272495 -0.108652569 0.110269241 0.0513315573 -0.0305540636 0.0342323482 -0.0631524995 0.0433705449 -0.0224587377 0.0902758241 0.00980271213 -0.0973986238 0.110346839 -0.0806877241 0.121442698 -0.0798949525 0.0666190386 -0.0774485841 -0.0952825993 -0.0672317445 0.0729354993 0.083978653 0.00362257683 0.0915563181 0.0179916732 -0.0388296172 -0.0833982974 0.0431435481 0.0574560165 0.0853885412 -0.106974609 -0.0448627733 -0.00635190308 -0.125667796 0.0728678107 -0.0511443838 -0.0298504122 0.073274672 -0.0188771002 -0.0798587129 -0.122988164 0.0601705462 0.122145481 0.00936382823 -0.0415719263 -0.114153296 -0.0425256193 0.103522606 0.123473883 -0.118432164 0.109308816 -0.100444615 0.0917152464 0.178542092 0.00938925333 0.197056815 -0.102689296 0.0788699314 -0.0249189604 0.146484673 0.187488988 -0.00782471243 -0.140485048 -0.0237639677 0.127835467 0.00193703687 0.156085745 -0.00178337994 -0.129817247 0.149814308 0.00168257335 -0.0604110323 0.129243493 0.228172526 0.217494458 0.106604911 -0.0587567799 0.0747141913 0.0324371755 0.00270281779 0.240718484 0.0501318015 -0.132020369 0.115715519 0.0610675924 -0.09425807 0.0638368726 -0.118010253 -0.0269131865 -0.0755680799 0.115711063 0.182809174 -0.0625192896 0.00496226503 0.130822673 0.0839089453 0.126618788 0.0974090472 0.190740168 0.0360416397 -0.0173403248 -0.158009887 0.0704216287 0.0138865225 -0.200834975 0.151226595 -0.158790872 0.145294532 0.14456296 -0.201371029 -0.144078612 -0.0753902569 -0.0377877429 0.130836964 0.207431182 0.151582763 0.0266070031 0.0110693779 -0.064150393 0.0867591947 -0.0847132355 0.0429407395 0.0662242547 0.0204070285 -0.0250823051 0.0186406281 0.0851671174 -0.0795663968 0.0340641141 -0.0710770711 -0.0333683267 0.0148307942 0.0884851813 0.0637958497 -0.0855371505 0.0842141807 -0.0380797684 -0.115374446 0.0914987549 -0.00418448681 -0.0589514673 0.00132458156 0.0470678546 -0.126729697 0.0601253472 -0.0524750128 -0.0748284906 0.0823528692 -0.111877218 0.0395659804 -0.0798601136 -0.0853449255 -0.0560849011 0.110277466 -0.0511675067 0.11682377 0.0985732898 -0.0630542636 0.0509669259 -0.0674143583 0.0126558086 -0.045103956 0.0404652096 0.0701819807 -0.0757706538 -0.061915189 -0.0117076579 -0.128131449 0.0745112151 0.0140536027 0.025632346 0.0613845065 -0.0686801448 0.0459348708 -0.0765671879 -0.0144989192 -0.010577769 -0.0522370376 -0.0323090069 0.288005024 -0.0182483625 -0.0459972285 0.100830697 -0.0448366441 0.121830896 -0.175205454 0.0333873741 -0.0217712931 -0.0355708338 -0.176821083 0.189249605 0.0526308604 -0.168772742 -0.0632443354 -0.140564427 0.0949913412 0.151154384 -0.0364608876 0.10848552 0.0445792675 -0.184288189 -0.155515134 -0.128227651 -0.0438606851 0.0746875331 -0.0739077404 0.00721753901 -0.0940192342 -0.0657156259 -0.0422287285 0.022828348 -0.0714319125 -0.0100228973 -0.0316290222 -0.124603026 0.0441133827 0.0543887503 0.139613256 -0.186390668 -0.0361826494 0.0289841667 0.194065303 0.0104566617 0.0398348086 -0.101241119 -0.034508653 -0.0563421994 0.0143732568 0.126192376 0.126642123 -0.12561813 0.155106023 0.119614556 -0.171866491 -0.0413356796 -0.0867581815 0.0548179261 0.176699266 0.106000729 -0.00710957916 0.10335055 0.0343361087 0.0247057304 0.00314345956 -0.0527977422 -0.106890939 -0.0439925194 0.102566943 0.0607267022 -0.0127841476 -0.0727993101 0.0714179277 -0.0911926404 0.0245657619 0.0621612519 -0.0884984061 -0.0392941087 0.0703019798 0.0214384999 0.0055561387 -0.0736688599 -0.0100725591 -0.0658814088 0.00652299682 0.029446505 -0.0848394036 -0.0440438241 -0.0288822018 -0.0389477313 -0.0718342885 -0.0732487515 -0.117512889 0.0188381355 -0.04957176 0.0440766476 0.111883573 0.0382043347 0.0379196331 0.0679528862 -0.09552674 0.111597091 -0.0839691311 0.0539077856 -0.0977364406 0.043245919 -0.00626416504 -0.0969061479 -0.0363486893 0.0426921733 -0.0758716986 0.125693619 -0.115694173 -0.0192486718 -0.062819615 0.121410847 -0.00857924763 0.0647621155 0.0311633535 -0.00180477113 0.0195137449 -0.0469517671 0.0444767624 -0.0473045334 0.00122213713 -0.0680279583 -0.0488043018 -0.0442244373 0.165831417 -0.11290127 0.0281539559 0.0364855379 -0.0498409979 0.000766004261 0.0575761162 0.0373693854 0.0701547489 0.147605643 -0.0952077284 -0.0249981284 -0.0325915031 -0.0746273473 0.0631904602 0.125191629 0.108136594 0.0549470894 -0.0428445339 0.173183084 0.114127584 -0.0659555271 -0.0695884898 0.0579339787 0.131922781 0.120857611 0.0355453864 0.0331643596 -0.00580059877 0.0336069316 0.0981232747 0.0297056623 -0.0933801681 0.0109561449 0.105383873 -0.0926193073 -0.0255959444 0.0628897473 0.129316136 0.0128424615 0.13402386 -0.0186787341 0.190609187 0.148940012 0.139977589 -0.0563171171 -0.0388548896 0.0786228254 0.0674777776 -0.0351818986 0.158238918 -0.112514429 0.133763418 0.167909399 0.0247209724 0.0718619823 0.0684139282 0.00505478168 0.0348192677 -0.0208390448 -0.0161788948 0.180738702 0.152391061 0.0542231388 -0.249375343 0.0588294528 0.236004874 0.0321076922 0.050877735 0.0144506507 0.127591476 0.00342793157 0.0544584692 0.216344014 0.0850398391 -0.0723754913 0.126665175 0.212135747 0.162626937 0.248827174 -0.0683762655 -0.0525989458 0.0303807706 -0.0563149527 -0.0678252727 0.265512407 0.108952872 -0.00718789734 0.0860127732 -0.0158714484 0.0143552572 0.0314961523 0.133369192 0.242786407 0.06266433 -0.168542773 0.179163098 0.0631113052 0.0900522321 0.116585769 -0.141415164 0.0627229884 -0.139840841 0.112848304 0.0182413161 0.0415615216 -0.190578878 0.032975588 0.206862658 0.0119977212 -0.0519666485 0.256848931 0.0867507979 -0.0815906599 0.0527617782 0.0389436334 0.0150967762 -0.102509744 0.0858773068 -0.0476468019 0.0939844996 0.141733482 -0.114340238 -0.0437119566 -0.0896147117 -0.270894438 0.0198925901 0.161544278 0.0576085672 -0.153513491 -0.193815187 0.118582152 -0.151412621 0.0682053044 -0.167123228 0.016028801 0.0743406266 -0.149834424 -0.116002373 0.198314652 -0.0788239539 -0.106611043 -0.0212489385 -0.141077742 0.0152279101 0.108367354 -0.00561515149 0.0235033147 0.0952612013 -0.157359704 -0.0762920529 -0.175689638 0.0301354472 -0.0364985205 0.000684319006 -0.16711925 0.0630005002 -0.219514087 0.0260599647 -0.0123179229 -0.132983476 -0.107483096 0.108029552 -0.0252678562 0.188568294 0.128554523 0.167498872 -0.238565773 -0.141807556 0.0734459162 0.0182800069 0.0968322679 -0.151578933 -0.077351138 0.15532212 -0.0329113826 -0.120027728 0.24857457 0.0555246063 -0.079171218 -4.48504725e-05 0.175974756 -0.0720420778 0.117291644 -0.184203982 0.000189961967 0.0502857454 0.0460136645 0.168752253 0.200049818 0.117965147 -0.158168957 0.119459026 -0.145479143 -0.0894619599 0.078527011 0.0942356065 0.00925006624 -0.0100382967 -0.107520685 -0.032577429 0.0721631348 -0.0548415594 0.118776761 -0.110757947 -0.125243574 0.0336862952 0.101181678 -0.0616487637 -0.0429057404 0.113062397 -0.131670356 0.103866592 -0.0914821103 0.00284741772 0.0371989235 0.0588181987 -0.0572274998 -0.0871832818 -0.0408674888 -0.135933697 0.0810407549 -0.0304297172 -0.0413713716 0.0988861918 0.0677443966 -0.0734364316 -0.0687538758 -0.00291323522 0.0239954144 -0.0264969207 -0.0986771509 0.0467243679 -0.13605462 -0.0327023529 0.0961436257 0.0681150258 0.0195558891 -0.0244496074 -0.06210161 0.0307891481 0.0202699918 0.102279127 -0.13604717 -0.122084528 -0.0555168428 0.0823872909 -0.0901857391 0.010384324 0.0506749935 -0.00142619549 -0.0188938919 0.0315322652 0.0762534365 -0.0224692021 -0.0496899113 0.0977674797 0.0473916084 -0.13111341 0.091941908 -0.180573806 0.208756804 -0.0904585719 0.161106944 0.0182533357 -0.111450873 -0.146991268 0.244494975 -0.0788002387 -0.22733435 -0.0421887785 -0.162717089 0.0992436111 0.19891502 -0.0493214764 0.204421103 0.167797416 -0.0288872216 0.0172412731 -0.206174836 -0.111154266 0.141861513 0.0115213105 -0.16552034 0.0363525301 -0.0262829084 -0.172966972 0.053298261 -0.014860102 0.0976761281 0.154394746 -0.0411827751 0.0736712515 0.0306431372 0.131259724 -0.0886542052 -0.12219698 0.0571425892 0.112459712 0.000151537257 0.0103694284 -0.0243302714 0.20432511 -0.149023712 -0.0876139402 0.0205850136 0.109310612 -0.0380470529 0.214456543 0.16817382 -0.1897946 0.0173890665 -0.0765668452 -0.07125853 0.0340389609 0.00334296655 0.161734045 0.216970131 -0.00805325713 -0.178297594 0.0851488933 -0.158270389 0.0559647866 0.132985815 -0.144637987 0.165776655 -0.0590338074 -0.00688948389 0.0131127192 -0.0663831159 -0.0836922303 -0.0273295473 -0.0410137102 -0.115077376 0.00355203706 -0.114992969 0.0644386336 0.162974849 -0.0167376269 0.0160275288 0.106862195 0.0010064285 -0.0467883758 -0.119683512 -0.100274771 0.0141890133 -0.0104422197 0.0359655656 0.00785360485 0.0134084839 0.051508572 0.116211146 0.0783774629 0.0661074072 0.163870275 -0.123291746 0.0962432995 0.0953341722 0.137472525 -0.0552581996 0.0242518391 -0.0454124399 0.113000527 -0.0301452149 0.0351541825 -0.101870924 0.0277983826 -0.138064072 0.0247346237 0.0755706057 0.108608969 -0.0132161826 0.14599134 0.131839022 -0.0162318535 -0.0382976681 -0.0947920606 -0.107362211 0.161970645 0.153603747 0.154309601 0.200088501 0.0497172773 -0.112593144 -0.0684601068 0.0316125937 -0.145337388 0.0383879431 -0.0849137008 -0.0919219777 0.00380379404 0.0645141453 0.0434937552 -0.123526961 0.0891040117 -0.125479877 -0.0502484515 0.0276414324 0.0839290544 -0.0773601681 0.0800229609 0.110152833 0.00354403374 0.0360520035 0.0795014799 0.0204704087 0.036749687 -0.0580667183 -0.101649344 0.00637210906 0.0975988805 -0.0340506323 0.00642971043 -0.0422398262 0.00713406922 0.0537217408 -0.0215860661 -0.0453541987 0.0188805517 -0.0946792737 0.0669274628 -0.0769612566 0.0840352997 -0.0321916454 0.0724628642 0.0646942258 -0.116790593 -0.0711527467 -0.0207276605 -0.00655034836 -0.0301009845 -0.0639867336 0.0593511127 -0.115451008 0.0626950637 -0.0937578231 0.0312273037 0.117178038 0.0518686809 -0.0895501226 0.0826167464 -0.0527910441 0.0714327022 -0.0537204146 0.0349399708 0.0458632596 0.0508673824 0.043604929 -0.101753548 -0.0359996781 -0.0082960045 0.0716394037 -0.0976459756 -0.105444081 0.0220562741 -0.0417507775 0.0618693605 -0.129495382 -0.079326652 -0.125504494 0.0579913631 0.046955701 0.00558396662 0.0427341647 0.0919633582 -0.090290904 0.0944394022 -0.0531171933 -0.0354632027 0.0103154909 0.00504839141 0.0477958061 -0.0464508608 -0.080230251 -0.0865188092 0.0474759638 0.0684599653 -0.0331789739 0.0160589274 0.0691642761 0.0414537676 0.0227032304 -0.101152331 -0.101987392 -0.093123965 0.0818790197 -0.0649976507 -0.0110779796 -0.131839022 0.103847317 -0.0242400579 -0.03181554 0.0982334986 -0.0877090394 -0.0376041085 0.0760502368 0.0347548351 0.0935459435 -0.0767600238 -0.0466602333 -0.0400648229 0.105966009 -0.0193532724 -0.0973643512 0.0321521461 -0.124802835 0.0764379725 0.00762361847 0.103086509 -0.0735728666 -0.12779443 0.00919320155 0.0940607041 -0.184927911 -0.0166345928 0.0116271116 -0.0466272943 0.175647795 -0.115597457 -0.0411848612 -0.0176326502 -0.129129782 -0.0628063604 0.17810449 0.0566911623 -0.23651962 -0.122152694 0.0509460904 0.173903286 0.146328405 0.0049188179 -0.0428982079 -0.0441101044 0.0445516594 -0.19087708 -0.000927200366 -0.000551853504 0.20355615 -0.0275335442 -0.162245408 -0.069851011 0.0098240301 0.0169910043 0.0693219081 0.0356750228 -0.0493539497 0.0902087018 -0.132717788 0.00759072043 0.0451327264 -0.0285987649 -0.0276643075 -0.175450027 0.120228238 0.13204056 0.0384034552 -0.067950815 -0.0443469882 0.113341086 -0.193534181 -0.115003325 0.224291161 0.00466818502 -0.0515372902 0.0559686795 0.0416203067 -0.0733221173 0.142837524 -0.0800930932 -0.122527994 0.0796478614 0.170193911 0.0774374679 0.267375588 -0.0397471562 0.0418049954 0.0994855165 -0.0957603157 -0.0519814678 0.00275884871 0.0357892439 0.063309066 -0.0455283336 0.0483618155 -0.0977308899 -0.0873962566 0.0652748644 -0.0261572395 0.0399662443 0.0896736458 0.075730294 -0.0200566798 0.0815316886 -0.117151365 -0.0247048587 -0.0718270168 -0.0289502665 0.0499613173 0.0578565001 0.0791885033 0.0201640502 -0.0777124763 0.0950808004 -0.00301413122 -0.0399603918 -0.111596875 -0.0466290042 0.0758613348 -0.0387892574 0.055689048 -0.0709531978 -0.00879089814 -0.0392737761 -0.0422219187 -0.0327473767 0.110536814 -0.0616125949 0.10108377 -0.0206775665 0.0197668225 0.108044155 -0.00665877899 -0.0656661689 -0.00883790292 -0.0467990451 0.00875826646 -0.0639358759 0.0848764479 0.0711419433 -0.0128547251 0.0637579933 0.0650738105 -0.102887429 0.0729935318 0.0564938933 -0.036242824 0.0215414148 -0.0834380239 0.0836001709 -0.108264394 0.107158422 0.0914175808 0.0790330768 0.0368982255 -0.110400721 -0.0726309568 -0.114086956 0.0662898421 -0.0405295044 0.103068531 -0.0752005726 -0.113290772 0.0102592111 -0.100887075 0.089224115 -0.0657166541 0.0352675617 -0.0477538705 -0.0366906226 -0.0754072517 -0.0459469855 0.0601497144 -0.0233210027 -0.115432441 -0.0104121566 0.0327550173 -0.116046116 -0.105043322 -0.00728967786 -0.0276979059 -0.0741044283 -0.0532625318 -0.0387479663 0.0365429521 0.114443183 -0.0122420788 -0.103848472 0.0423924178 0.0707446933 0.0775576085 -0.0707293302 0.0742099285 0.0412271023 0.00436614454 -0.105926886 0.0383215398 -0.0525222123 -0.0421381295 0.0526325405 -0.0335790068 0.0781404376 0.0587280095 -0.0316922516 -0.0640188903 -0.102392524 0.0558345318 0.0749353915 -0.0686985999 0.0993551314 -0.0210534483 0.0182600915 0.059589386 0.0356407613 -0.10597387 0.110604383 0.080234006 0.101088107 0.0575680919 0.115506612 -0.0360037424 0.0727567375 0.0644084513 -0.10663975 -0.118557192 0.104462855 0.0563332252 -0.0599160902 0.0552869812 -0.102369346 0.0727312118 0.0058534164 0.0365512855 -0.0939133018 -0.0551126599 0.0668947175 0.047858946 -0.092556648 0.0199075937 -0.0500277355 0.124458469 -0.0104927914 0.0452154204 -0.11510361 -0.0713912845 -0.118118033 -0.0419174023 0.115084536 0.0464923754 -0.130755812 -0.0967336446 -0.0283691231 0.110194698 -0.0407778099 -0.090722315 0.100108385 -0.0890578926 0.0205932129 0.0755326152 -0.102102846 0.0594735518 -0.0274240747 0.0554154702 -0.0353643522 -0.0494878218 -0.0907539651 -0.0740760341 -0.0813246295 0.00513853692 0.106499292 -0.00349117722 0.0710725561 0.130241409 0.0597538091 0.0284370389 -0.0827919021 -0.102206863 -0.084676899 -0.0413708314 -0.173813924 0.108728729 0.0686057284 -0.0676737353 0.0120435618 -0.00720513565 0.144247085 -0.109573379 0.144562006 0.0323905647 0.202945009 -0.051633101 0.0584142655 0.0798580274 0.172200441 0.204736948 -0.0836750492 -0.0926632956 0.032328371 -0.138183504 0.099373132 0.254277289 0.065185599 0.203309745 0.0986028463 0.0586538799 0.0307638515 0.132803917 -0.0357316583 0.131611422 0.223067477 0.0172283314 0.0139531903 0.0445104726 0.0598637275 0.0240351297 -0.167106777 0.0980931446 -0.0556753054 0.228962079 0.157190606 0.0397030935 -0.0427561887 0.0683336332 0.136646271 0.234140143 0.0818979889 0.226953983 0.15980877 -0.113351345 -0.0428298898 0.14983277 -0.124239683 -0.0800116956 0.107617952 -0.133990824 0.0442883372 0.22685577 -0.197112039 -0.10873881 -0.00881087594 -0.0476674996 0.0357594453 0.108091787 0.245390147 -0.0548028015 -0.159308329 0.00458406983 -0.13330178 0.056369096 -0.180416405 0.121792026 0.101785749 -0.156877398 -0.0106757078 0.0725502819 0.103952326 -0.217385799 -0.254147917 -0.159713194 0.128361404 -0.0151712606 -0.0549645871 0.11775177 -0.0306708161 -0.163659126 -0.0373793952 -0.0107140169 0.0863771439 0.0034582552 -0.00283787213 -0.139435157 0.0819064155 -0.188248172 -0.209989935 0.0711230114 -0.0779215395 0.14590697 0.0651703998 -0.228856757 -0.0127337491 0.0372727849 0.191904142 -0.158109307 -0.0730782598 -0.09707243 0.0522457436 0.00925169419 -0.0681595951 -0.107532933 0.169931367 -0.134207547 -0.100963838 0.104810461 -0.0287412964 -0.0957632363 0.142922089 0.108067282 -0.1906057 0.179172859 -0.0973253995 -0.17457062 0.184941038 0.0588090941 -0.0190033 0.265539855 0.165349722 -0.121733434 -0.0377066694 0.0974505246 -0.123827785 -0.131994084 -0.0281700362 -0.106038719 0.0607018955 -0.0532058068 -0.104019739 -0.0926555246 -0.0156304687 -0.150987163 0.0223756712 0.00421156455 0.0337453857 -0.094135195 0.0565084442 -0.0871011838 0.0696453229 -0.0121718291 -0.116148405 0.0829006433 -0.0297876261 -0.122497216 -0.128433734 -0.0729384273 -0.0901778042 -0.0961593315 -0.130820036 -0.0204524379 -0.0403893068 0.114606164 -0.112394013 -0.110591099 0.0671122968 -0.133335084 0.0124790482 0.0442705564 0.0660420731 0.049009759 0.0330831036 -0.105412684 -0.10544569 -0.0131803127 -0.0333281457 0.0469497219 0.0989309847 0.0351853892 0.0487878509 0.087587975 -0.00547674391 0.0529865921 0.0934962854 -0.0838410184 -0.0269061048 -0.0272244737 -0.0677926242 0.0462513864 -0.0492234379 -0.106762312 -0.124000356 0.0347719416 0.0544924662 0.049550578 -0.0371582359 0.0353086293 0.00870410725 0.0360829942 0.137577608 -0.0503557473 0.130002305 0.0134273302 0.0771501735 0.186810747 0.158457711 -0.139094263 0.0157414339 0.275335491 0.0545422547 -0.013114146 -0.152937695 -0.0619556196 0.114850998 -0.142247424 -0.124655172 0.0488633662 0.250710905 0.0944830924 0.12862879 -0.06984514 0.11355374 0.10158392 0.0488348752 0.0309715774 0.0231624022 -0.0347814523 0.15509069 -0.110229664 -0.102616064 0.000566790055 -0.104664207 -0.0991350636 0.0404032096 0.132499903 0.106769703 0.00338809146 -0.0958252624 -0.0400170684 0.114829041 0.133943215 -0.0222055111 0.171740174 0.0657791719 -0.0399927422 -0.076012671 0.0392233096 -0.119219087 -0.221555784 0.0781717971 -0.180649042 0.0495883711 0.0662987828 -0.137336239 0.0126609597 0.0768904462 -0.0966340899 0.0924378783 0.216176018 0.180136636 -0.103574291 -0.0745007843 -0.0432665125 -0.0736510903 0.0427648015 -0.0592791438 0.132669419 -0.0890856236 -0.113356419 -0.00695099961 0.123133183 -0.00229582144 -0.248209536 -0.0473565273 -0.180854291 0.133672476 0.0415834226 -0.104222164 0.0872125402 0.159920365 -0.158201784 -0.0431632251 -0.210382178 -0.0860347599 0.100493558 0.11001648 -0.0822888166 0.122187294 -0.171187699 -0.0510992855 0.13970986 -0.0900931582 -0.0795574263 -0.0573156625 -0.2073102 0.188316062 0.0927968621 0.00258379662 -0.139384419 -0.151380777 0.052062884 0.223325744 -0.0206084177 -0.0210803468 -0.054756999 0.184346914 -0.150887787 -0.0027349263 0.0407455005 0.124804348 -0.115066446 0.079115212 0.240494624 -0.0676777586 -0.0232480373 -0.0914110616 -0.104221366 0.166755691 0.0853392184 -0.00366088538 0.0464517772 0.0498671792 -0.1192149 0.245664865 -0.0180111937 -0.167617276 -0.0988309383 0.0613378398 0.138235182 -0.135735303 0.100441828 -0.0641585663 0.02440116 -0.0363144577 0.00910883956 0.0301697589 -0.177651569 -0.200798795 -0.029616667 0.161022142 -0.0137740541 -0.0745397061 0.156947017 0.108179636 -0.086527057 -0.172820956 -0.0464208871 -0.0373641253 0.147841096 -0.0132061578 -0.0846379995 0.00457866397 -0.0132885091 -0.16818513 -0.0409244746 0.0810954869 -0.00158342998 0.0383217074 -0.205407768 0.0339496322 0.0403073169 0.13528119 -0.159643948 -0.142642915 0.0521412864 0.0549872741 0.0644125119 -0.162026897 -0.140608311 0.115436621 -0.163223967 -0.212454155 0.129947081 0.1652022 -0.0466066077 0.0707847476 0.237119853 -0.153224245 0.129945099 -0.0427721813 -0.190881938 0.191993237 0.189737871 0.128581464 0.208047837 0.142541811 -0.138584822 0.29225862 0.00409615273 -0.161152184 -0.0396764018 -0.0651892051 0.0807873532 -0.0602617115 0.0809205398 0.0359093919 -0.152085692 0.0362680741 0.212187484 0.00449325331 -0.243605241 -0.0580909215 -0.106817648 0.00758645125 0.164443716 0.0189986117 0.188957348 0.00515355729 -0.136238977 -0.126266479 -0.190916404 -0.0787845403 0.00441892771 0.0263757408 0.0152758518 0.0265230797 -0.0609492138 -0.0389778726 0.105561219 0.0495885387 0.12199834 -0.00938512757 -0.150552794 0.181552351 -0.0715106502 0.065894872 -0.13179788 -0.0200790204 0.0805783272 0.0632598102 0.176974088 -0.0739718154 -0.0864388421 0.112012342 -0.0878399536 -0.18780379 0.167422056 0.128448397 -0.036085505 0.120433606 0.258762538 -0.194700375 0.0705176219 0.0132578248 0.01865004 0.250517458 0.167297453 -0.0601900145 0.0958423093 -0.073927857 -0.0160423666 0.174809888 -0.173656955 -0.008634408 -0.0908926427 -0.149916396 0.0702390969 -0.110881872 -0.0570520163 -0.0695014894 0.0146284057 -0.172548041 0.095705308 -0.087419197 -0.0595363602 -0.178310201 -0.0939250514 0.224625424 -0.0146017987 -0.0647499114 0.16807656 0.0791655928 -0.0629072636 -0.216182962 -0.228634268 -0.0679917336 -0.0232684817 -0.0128776906 0.00874261744 0.0692585632 -0.0908360109 -0.127916947 -0.000759363524 -0.147437617 -0.0688581914 0.163341179 -0.204406902 0.123553686 -0.0395673886 0.0705349669 -0.102514803 -0.00109829998 -0.124718562 0.176254272 0.141716659 -0.136496007 0.0164171904 0.142892942 -0.108545594 -0.11221686 0.192781955 0.110937834 -0.0493246764 0.0876328945 0.0503745154 -0.114126258 0.10561014 -0.167335257 -0.20068346 0.274530262 0.192040637 0.162758365 0.278746486 0.0553757697 -0.0808478966 -0.0669133067 -0.0987333506 -0.110042654 -0.0737283081 -0.0398079455 0.0561590418 0.0682406723 0.07021375 -0.0509913489 0.101543337 0.0204113498 -0.0856270492 0.0399482921 -0.0292592663 0.106556311 -0.0327591002 -0.0656836182 -0.0787803829 0.0663710237 -0.0962791443 -0.034088213 -0.0737483278 0.0840232372 0.0471190289 -0.0343256369 0.0042309165 -0.117585324 0.0500394255 -0.0568536967 0.0423764102 -0.0166513976 -0.0634007603 0.0126145259 -0.00763383321 0.0529334806 0.00458282651 0.087969102 0.106477387 -0.103580274 0.116321281 -0.103785098 0.0904663056 -0.124931261 0.110477932 -0.0668199435 -0.0769505054 0.100833341 -0.027763566 -0.118417218 0.0965618193 0.116923735 -0.0324181616 -0.082262069 0.0618939698 -0.0370319821 0.0642607212 0.0445881225 -0.076803565 -0.115457088 0.110460959 0.023580173 -0.0802173316 0.0568968914 -0.0859356299 0.246086955 -0.130595267 -0.0479812771 -0.12214119 -0.166264907 0.00810541213 -0.0853616148 -0.0781721175 -0.0278000906 -0.102423429 -0.0805803388 0.0831005573 0.0621594712 -0.182430744 -0.153240398 -0.150136977 0.0343311131 0.123877659 -0.00655878149 -0.0451582335 0.116712295 -0.112895757 -0.194823876 -0.0815413296 0.0049242219 0.0958353952 0.154351085 -0.0385272875 0.0731969029 -0.199242949 -0.18757391 0.196911216 0.0736877695 0.0637383312 0.16712077 -0.0542981438 0.156064302 0.165948272 0.0709032118 -0.127076775 -0.099210985 0.0900855213 0.112771958 0.0810064971 0.0675639883 0.00698710978 0.151857734 -0.122067846 -0.0701605007 0.0593644716 0.000396656134 -0.0178285651 -0.0261954144 0.222841501 -0.0309598818 -0.00358252577 -0.167790622 -0.15947926 0.113714524 0.0156709701 0.0668554455 0.141975388 -0.0192530993 -0.19224979 -0.133922547 0.100153767 0.213222787 -0.0489627197 0.132596433 -0.00746945292 0.0941197723 0.108732782 0.0560288727 0.0985738039 0.0509915203 0.0255142655 0.0148519799 0.174684539 0.191982076 0.159040883 0.00196270226 -0.170755208 -0.00761491805 -0.0533263646 0.0323085971 0.257583886 0.17355819 0.0610722788 0.153015226 -0.103902206 0.00239256537 0.161954343 0.164713651 0.179745704 0.202262402 0.00815228932 0.125362337 0.00605070358 0.0170022473 0.179477111 -0.0827265531 0.106070563 -0.183474064 0.0318532623 0.0216756295 -0.00773260742 -0.0846264586 -0.0725022629 0.164125636 0.196887329 -0.151419818 0.262043059 0.0147060603 -0.0868066251 -0.0321391188 0.185923487 -0.141948223 -0.132395044 0.230508193 -0.0641526803 0.135407671 0.206195042 -0.193575293 -0.0152121168 0.0679280981 -0.0932744667 -0.101537921 0.10413871 0.28272143 -0.026246991 -0.148643598 0.0539920479 -0.0401087217 0.0810735598 -0.186211973 0.0248065777 -0.0456902049 0.0479711667 -0.00387408072 0.245458528 0.0652040318 -0.0343371443 -0.0649712607 -0.105758853 0.187456608 0.0927834287 0.0296907891 -0.0326147787 0.11941199 -0.09314657 -0.173023924 -0.0772459432 0.00250444422 0.0606759191 0.0461126529 -0.0770780519 0.039694082 -0.168713585 -0.0588126518 0.116888754 0.0757083818 0.0845042914 0.0955332592 -0.202469185 0.0697723702 -0.0613631345 -0.035785839 -0.0575853921 -0.0712385774 -0.0221282374 0.0132061811 0.121113665 -0.0730505437 -0.0281659849 0.0845247358 -0.130030185 -0.0278791841 0.196495891 0.123260744 -0.199140981 0.0564310104 0.123346984 -0.0489941314 0.0994270891 -0.15067257 -0.0789984912 0.177088246 0.062809594 0.128081426 0.154644445 -0.00380331278 -0.0600907728 -0.0790935308 0.017415747 -0.0983310193 -0.020895889 -0.0722787827 -0.0952958092 -0.0585223287 -0.116268754 -0.0146127939 0.0359035581 0.0704318583 0.0299981385 0.11607112 0.0527679473 0.0783180892 0.0485684946 -0.0999277085 0.0567111149 0.112010598 -0.0904941261 -0.0631779656 -0.0511266142 -0.0202658176 0.0638350993 0.0736964643 -0.0501877666 -0.0999282002 0.0277913064 0.0670480505 -0.0653117001 0.00637837499 -0.020571053 -0.130266875 -0.0183065534 0.0374057293 -0.0286803097 -0.111252129 -0.0911405087 -0.000787369849 0.00699527562 -0.0987611562 0.0612769425 0.073463738 -0.0581793301 -0.0485833585 0.0503847301 0.0664374083 -0.0972704738 -0.0111563802 0.0683706328 -0.000793859363 -0.0152096469 -0.110751092 0.0955796987 0.0771552026 -0.0276937187 -0.118492946 0.0613866113 -0.067920953 -0.0825553015 -0.0590076968 0.0916053802 0.0437974446 -0.00570172071 0.199919909 -0.0248844679 -0.118178397 -0.107678711 -0.090050742 0.134885371 -0.0349307284 0.107385293 0.107515588 0.0600957982 -0.0327741019 -0.0485896468 -0.0230515674 -0.176221952 0.0236870889 -0.0224428028 0.0390904546 -0.0591076054 -0.136449516 0.083227396 0.152071655 0.0844855979 0.0774393454 -0.0163545012 -0.0811859816 0.0900530368 0.105962187 -0.0364138894 0.102786198 -0.108187214 -0.0250559095 0.108544677 -0.0258813296 -0.0129467379 -0.070124492 -0.0774771273 0.011062243 0.0358370543 0.109153472 -0.00680661341 -0.0287873968 0.039455317 0.0159909409 -0.0275107026 -0.108351447 0.0186401475 0.10732834 -0.00437379722 -0.122326262 0.115686044 0.0363868028 -0.103024848 -0.055777505 0.136777639 -0.129593119 0.122489914 -0.130438522 0.0407979377 0.224574625 0.14321205 -0.0186354369 0.176111206 0.153344184 -0.100856639 0.147646978 -0.0597953163 -0.11309436 -0.11762435 -0.111970007 0.0325370319 -0.176969886 -0.0178108122 0.118441306 -0.0710450411 0.0216432717 0.238151357 0.0587161444 -0.196547121 -0.103457741 0.0302067231 0.0918199047 0.215237364 -0.00668571098 0.0988013148 0.110451326 -0.033342611 -0.0636334494 -0.195788741 -0.0867400765 0.0137369493 0.158532977 -0.134203732 0.0213850103 -0.211797029 -0.0913727283 0.177067891 -0.130600646 -0.118125372 0.0803200305 -0.0378505848 0.0938936248 0.0653052405 0.208595261 -0.211472675 0.0171413403 0.101071157 0.183359027 0.173630118 -0.129613787 -0.127012804 0.172154024 -0.163986325 0.0466320254 0.215572968 0.0226143561 -0.125818446 0.0802223831 0.0180137698 -0.127202064 -0.0149023077 -0.0574717373 -0.183356389 0.234889627 0.183716118 -0.0505414046 0.269862115 0.148280874 -0.133398816 0.179384917 -0.00328908139 -0.13071765 0.148088723 -0.0738759339 0.195368245 -0.00380562083 -0.0326151699 -0.0673350766 -0.143671617 -0.157065719 0.00240380852 -0.0902077854 -0.0279745702 0.00840287656 -0.0638511851 0.090371199 0.0808863863 0.0149288895 0.000346466928 0.0131217474 -0.155126646 -0.0936169848 0.0185112376 -0.0893510282 0.0708398372 -0.0652183741 -0.0798855275 -0.0382739715 -0.0696790069 -0.12660569 0.0757681951 -0.13739118 0.142091885 0.0308411755 -0.10196539 0.153672636 0.0944634825 0.200682208 -0.108276233 -0.148434356 0.020420298 0.119612299 0.0874940157 0.0567019843 0.00405724486 0.181818977 0.0628754646 -0.0304221176 0.0898169354 0.104850128 -0.146132931 0.147154048 0.110252395 -0.00189204176 0.122612245 0.0127519378 -0.149249688 0.287997425 0.175589591 0.153666213 0.100929052 -0.0352675878 0.0246389285 0.0603262335 -0.0860066488 0.00569611788 -0.031735044 0.0677608401 -0.0251119435 0.00474426569 -0.00507569825 -0.122795284 -0.00539676845 -0.0172940716 -0.107803926 -0.0873893648 -0.0806237906 -0.101033941 -0.0644053221 -0.0178769827 0.108366162 0.122853398 -0.0444172211 -0.0760551766 -0.00856923964 0.0719819814 -0.0750594586 -0.0905649886 0.078217864 0.0260014143 0.108895555 -0.0201315824 -0.0095653832 0.100124888 0.0247785896 0.0680046007 0.0501508079 -0.0434364378 0.00617860258 -0.0723645687 0.00678037107 -0.100857094 0.107706949 -0.0954448432 0.0642342567 -7.58767128e-05 0.0428735912 -0.0522017926 -0.0478381664 -0.0377941579 -0.0168594271 0.0720768124 -0.10058786 0.0730889738 0.111387543 -0.0920478329 -0.109525472 0.0292509682 0.0602769889 0.0503490008 -0.0656931102 -0.064086929 -0.00446607592 -0.115226775 0.114801109 0.0418480523 -0.0598056614 0.106854692 -0.177096322 -0.0358328037 0.12778756 -0.102780789 0.101208404 -0.075942114 0.0133372527 0.0382494181 0.0922165215 0.0249566399 0.0340607166 -0.107305698 -0.118818656 0.0366038159 -0.0541113615 0.145421684 0.067265369 0.0208798293 -0.0384287275 0.0366524532 -0.0207595583 -0.100629918 -0.101827256 0.0517618209 0.103207096 -0.0590296499 -0.166218653 0.136124671 -0.0358887874 -0.12905933 0.10894268 -0.0734204128 0.0776443332 0.0856172591 -0.157598823 0.00793629419 0.0159612391 0.141639173 -0.141090482 -0.0168975666 0.0211483724 0.10742221 -0.0377877839 0.0875293836 -0.0270587467 -0.0356641747 -0.0852362365 -0.102168866 0.151033372 0.102604151 -0.0405040719 0.0291299745 0.11113482 -0.032697551 0.185326904 -0.106117249 -0.0474712439 0.0177206509 0.172999755 0.00954809599 0.0838233083 0.0515128635 -0.0125586027 0.247531295 -0.114073701 -0.0791062042 0.0263610724 -0.150409609 0.137405664 -0.0210273713 0.101260059 0.139132813 0.000348235422 -0.060056448 0.0781334564 -0.0250176154 -0.172225878 -0.12351352 0.00468069734 -0.0328848176 0.00913453382 -0.112759389 0.0401438102 0.0504851379 -0.104807705 -0.0103918882 -0.0363664664 0.108116798 0.0095431637 -0.0536739528 -0.0601758026 0.123415872 -0.103951715 0.00109900348 0.0234588943 0.0642211512 0.00235585682 0.0466420278 0.0201831963 0.0421076119 -0.0520698763 0.0962560326 -0.132630289 -0.052701287 0.117237858 0.131226748 0.046962712 -0.0857627988 0.111786142 -0.0218678582 -0.0144559536 0.00271452102 -0.00551564107 0.175528526 0.0587499179 0.00119893055 0.217134655 -0.0999766514 0.0156574398 -0.106585808 -0.0773321986 0.258563191 0.14972052 0.1069526 0.00626996672 0.0769852102 0.0151626179 -0.0613623932 0.0752258748 0.25417906 0.104268909 -0.0120647242 0.0766474977 0.150862053 -0.0759034902 -0.00523891486 0.184285074 0.051573839 -0.0863577276 0.0232910365 0.201585993 0.0475957729 0.0532458127 -0.145590961 0.0444236472 0.0625733808 -0.111568674 -0.0381981432 0.17482245 0.266019493 0.0449017212 0.128685132 -0.0724593699 0.0364726 0.169592381 0.0529802181 0.236430869 0.121272847 -0.0188488271 0.188603058 -0.0778829232 -0.0937490165 0.0201269872 -0.172421008 -0.128009722 -0.117525488 0.214240432 0.0937730595 0.0976993367 -0.0252102111 -0.0915554538 0.16767025 0.227321669 0.0835748911 0.262586117 0.102802522 -0.154203176 -0.0978637934 0.172996894 -0.116494849 -0.231299669 0.177560449 -0.0567157939 0.0379319899 0.226191878 -0.247555748 -0.123809248 0.00414145971 -0.0708903968 0.108889177 0.18754001 -0.111411266 -0.0318306647 0.183813706 -0.0033587683 0.0592444167 0.0528909229 0.194886506 -0.0237411037 -0.0299114343 0.139773145 0.130537301 -0.0764754936 0.0011819012 0.106906354 0.0553287305 0.158605203 -0.0751474425 -0.0665971935 0.062973544 0.0215766747 0.0715755522 0.125529721 0.117155343 0.23469764 -0.0389399789 0.0308570489 0.0717383176 0.127601326 0.158224285 0.0249575078 0.0340969674 -0.150048941 -0.0101377238 0.0312323011 0.0175382476 0.158195257 -0.0656118542 0.0493011773 -0.131166413 0.15678063 0.0689064041 -0.0627271757 0.0413275845 0.0320145935 0.0207793657 0.167149708 -0.0381046534 0.132501587 0.0216093902 -0.100904003 0.0744285882 0.0253587477 -0.0813205019 -0.0133551918 0.129453763 0.0258020684 -0.0042998069 0.0980902761 -0.247825369 0.0876820907 -0.0563713908 -0.0580075532 0.0994991288 0.0640922263 0.0502735823 0.105523266 0.0787531063 -0.00601331051 0.0905028135 -0.00780065451 0.0963647738 0.0312514342 0.0764951929 -0.005511289 -0.0970474258 -0.120709769 -0.00550576206 0.0242121015 -0.044940535 -0.0714895129 0.0519251078 -0.0224788226 -0.0198665056 0.0975785106 0.0452864543 0.0338703133 -0.074018538 0.0629847795 -0.0160567332 -0.0713561475 -0.0608989745 -0.121852785 -0.0676184297 -0.0151146753 0.00210516411 0.0923882797 0.0110093746 -0.129922971 -0.142828107 -0.00593283307 0.0623025559 -0.00859448593 -0.0297124423 0.0257292744 0.0135086868 0.0742014349 -0.109530941 0.0841409862 0.107281312 0.0489243083 -0.0846106857 0.0734252259 -0.102678299 0.0612936094 0.06643112 0.0371747911 0.0169006847 0.00140551734 0.0354092643 -0.0986383557 0.0410870686 -0.0652074814 0.0357771516 -0.105715677 -0.0138291307 0.0342404209 -0.0508450307 -0.0906626582 -0.218404531 0.163809091 0.0225330368 -0.0583736338 0.170326546 0.0379882008 0.0225075874 -0.0557038337 0.107857898 0.189679101 0.0279029608 -0.150305226 0.00369012333 0.289476812 0.209352255 0.0518228896 0.0434932373 0.000826178526 0.0768987462 -0.0622669123 -0.0979376808 -0.00470475527 0.0489965528 0.176466212 0.114122026 -0.0998129025 -0.077641651 0.168136239 0.0811164603 0.253454238 0.203363091 0.0664807335 -0.0345838144 -0.0031391033 0.0050389776 0.0956069753 0.00195343303 -0.131108731 -0.139952466 -0.00663405238 0.107294723 0.0141654871 -0.0414701924 0.0541491397 0.0302898344 0.005270503 -0.0421394147 0.0274485387 0.0074333041 -0.0818872377 -0.0403799973 0.124630943 0.0939582139 -0.240080476 0.099943012 -0.0925204456 0.175679952 0.231639564 -0.101061478 -0.0871522203 